{"learner":{"attributes":{"scikit_learn":"{\"_estimator_type\": \"regressor\"}"},"feature_names":["input_voltage","voltage_lag10","voltage_lag50","voltage_lag100","power_lag1","power_lag2","power_rolling_mean"],"feature_types":["float","float","float","float","float","float","float"],"gradient_booster":{"model":{"cats":{"enc":[],"feature_segments":[],"sorted_idx":[]},"gbtree_model_param":{"num_parallel_tree":"1","num_trees":"100"},"iteration_indptr":[0,1,2,3,4,5,6,7,8,9,10,11,12,13,14,15,16,17,18,19,20,21,22,23,24,25,26,27,28,29,30,31,32,33,34,35,36,37,38,39,40,41,42,43,44,45,46,47,48,49,50,51,52,53,54,55,56,57,58,59,60,61,62,63,64,65,66,67,68,69,70,71,72,73,74,75,76,77,78,79,80,81,82,83,84,85,86,87,88,89,90,91,92,93,94,95,96,97,98,99,100],"tree_info":[0,0,0,0,0,0,0,0,0,0,0,0,0,0,0,0,0,0,0,0,0,0,0,0,0,0,0,0,0,0,0,0,0,0,0,0,0,0,0,0,0,0,0,0,0,0,0,0,0,0,0,0,0,0,0,0,0,0,0,0,0,0,0,0,0,0,0,0,0,0,0,0,0,0,0,0,0,0,0,0,0,0,0,0,0,0,0,0,0,0,0,0,0,0,0,0,0,0,0,0],"trees":[{"base_weights":[-4.1642907E-5,-5.0480215E2,8.266468E2,-6.8950964E2,-1.9928665E2,4.7924487E2,1.2113402E3,-7.864794E2,-6.017685E2,-3.1081894E2,-2.0283953E1,3.385349E2,6.043889E2,9.6868835E2,1.2625483E3,-8.6905096E2,-7.351367E2,-6.393677E2,-4.9948602E2,-3.691175E2,-2.4885144E2,-9.6746445E1,7.913903E1,2.671648E2,4.226683E2,5.5279895E2,7.2651215E2,9.033929E1,1.0333025E2,1.2219166E3,1.3072767E3,-8.8598145E1,-8.514718E1,-7.617806E1,-7.160478E1,-6.697455E1,-6.1708185E2,-5.3551247E1,-4.8486765E2,-4.0109097E2,-3.3344717E2,-2.8740607E2,-2.240519E2,-1.3328139E2,-3.823486E1,3.2169464E1,1.2629941E2,2.1069368E2,3.1541998E2,3.878305E2,4.421298E2,5.083495E2,5.922767E2,6.858993E1,7.9357025E1,1.1662388E2,1.2399933E2,1.2869135E2,1.3381201E2,-6.273421E1,-6.018056E1,-4.9494778E1,-4.602504E1,-4.144074E1,-3.8726734E1,-3.5031948E1,-3.1946745E1,-2.9507935E1,-2.6744019E1,-2.3145382E1,-1.9016953E1,-1.3943291E1,-1.1422747E1,-6.2900395E0,-2.1713455E0,1.8716729E0,5.2027845E0,9.27959E0,1.3432955E1,1.9447851E1,2.425311E1,2.855219E1,3.2012238E1,3.6052013E1,3.960902E1,4.258931E1,4.535984E1,4.8994587E1,5.303492E1,5.7469807E1,6.093233E1],"categories":[],"categories_nodes":[],"categories_segments":[],"categories_sizes":[],"default_left":[0,0,0,0,0,0,0,0,0,0,0,0,0,0,0,0,0,0,0,0,0,0,0,0,0,0,0,0,0,0,0,0,0,0,0,0,0,0,0,0,0,0,0,0,0,0,0,0,0,0,0,0,0,0,0,0,0,0,0,0,0,0,0,0,0,0,0,0,0,0,0,0,0,0,0,0,0,0,0,0,0,0,0,0,0,0,0,0,0,0,0],"id":0,"left_children":[1,3,5,7,9,11,13,15,17,19,21,23,25,27,29,31,33,35,37,39,41,43,45,47,49,51,53,-1,-1,55,57,-1,-1,-1,-1,-1,59,-1,61,63,65,67,69,71,73,75,77,79,81,83,85,87,89,-1,-1,-1,-1,-1,-1,-1,-1,-1,-1,-1,-1,-1,-1,-1,-1,-1,-1,-1,-1,-1,-1,-1,-1,-1,-1,-1,-1,-1,-1,-1,-1,-1,-1,-1,-1,-1,-1],"loss_changes":[1.747373E10,1.4669558E9,2.1211402E9,1.3737677E8,1.9558666E8,1.46725E8,9.238016E7,3.1974912E7,3.2407808E7,2.171392E7,2.8606864E7,2.3485152E7,2.74144E7,4.622976E6,9.700352E6,1.21856E5,1.870336E6,3.796992E6,9.47392E5,3.410944E6,2.736128E6,4.54183E6,3.619845E6,5.735136E6,1.050304E6,5.152704E6,3.01792E6,0E0,0E0,1.84832E6,1.27488E5,0E0,0E0,0E0,0E0,0E0,1.86752E5,0E0,1.79392E5,1.40304E5,2.35984E5,9.6192E4,4.04152E5,1.375E5,3.3238425E5,2.1835588E5,2.07068E5,4.60824E5,6.9712E4,4.728E3,2.0768E4,3.34912E5,1.41248E5,0E0,0E0,0E0,0E0,0E0,0E0,0E0,0E0,0E0,0E0,0E0,0E0,0E0,0E0,0E0,0E0,0E0,0E0,0E0,0E0,0E0,0E0,0E0,0E0,0E0,0E0,0E0,0E0,0E0,0E0,0E0,0E0,0E0,0E0,0E0,0E0,0E0,0E0],"parents":[2147483647,0,0,1,1,2,2,3,3,4,4,5,5,6,6,7,7,8,8,9,9,10,10,11,11,12,12,13,13,14,14,15,15,16,16,17,17,18,18,19,19,20,20,21,21,22,22,23,23,24,24,25,25,26,26,29,29,30,30,36,36,38,38,39,39,40,40,41,41,42,42,43,43,44,44,45,45,46,46,47,47,48,48,49,49,50,50,51,51,52,52],"right_children":[2,4,6,8,10,12,14,16,18,20,22,24,26,28,30,32,34,36,38,40,42,44,46,48,50,52,54,-1,-1,56,58,-1,-1,-1,-1,-1,60,-1,62,64,66,68,70,72,74,76,78,80,82,84,86,88,90,-1,-1,-1,-1,-1,-1,-1,-1,-1,-1,-1,-1,-1,-1,-1,-1,-1,-1,-1,-1,-1,-1,-1,-1,-1,-1,-1,-1,-1,-1,-1,-1,-1,-1,-1,-1,-1,-1],"split_conditions":[2.2154373E-1,-6.086836E-1,1.1570019E0,-9.6134937E-1,-2.424267E-1,6.4745384E-1,1.521703E0,-1.1457319E0,-7.9203755E-1,-4.3006906E-1,-1.0502091E-2,4.830784E-1,8.863756E-1,1.3333858E0,1.745817E0,-1.2199391E0,-1.0246083E0,-8.9111143E-1,-7.120355E-1,-5.148236E-1,-3.5825297E-1,-1.3107671E-1,1.0633698E-1,3.71505E-1,5.6646466E-1,7.650788E-1,1.0308784E0,9.033929E1,1.0333025E2,1.6597224E0,1.8095735E0,-8.8598145E1,-8.514718E1,-7.617806E1,-7.160478E1,-6.697455E1,-8.515582E-1,-5.3551247E1,-6.589539E-1,-5.5781704E-1,-4.6510524E-1,-3.8712403E-1,-2.8683305E-1,-1.7234945E-1,-5.6757454E-2,4.7140453E-2,1.4456338E-1,2.9692772E-1,4.028508E-1,5.118975E-1,6.008865E-1,7.023856E-1,8.1047374E-1,6.858993E1,7.9357025E1,1.1662388E2,1.2399933E2,1.2869135E2,1.3381201E2,-6.273421E1,-6.018056E1,-4.9494778E1,-4.602504E1,-4.144074E1,-3.8726734E1,-3.5031948E1,-3.1946745E1,-2.9507935E1,-2.6744019E1,-2.3145382E1,-1.9016953E1,-1.3943291E1,-1.1422747E1,-6.2900395E0,-2.1713455E0,1.8716729E0,5.2027845E0,9.27959E0,1.3432955E1,1.9447851E1,2.425311E1,2.855219E1,3.2012238E1,3.6052013E1,3.960902E1,4.258931E1,4.535984E1,4.8994587E1,5.303492E1,5.7469807E1,6.093233E1],"split_indices":[5,5,5,5,5,5,5,4,5,5,5,5,5,5,5,6,5,5,5,5,5,5,5,5,5,5,5,0,0,5,5,0,0,0,0,0,5,0,5,5,5,5,5,5,5,5,5,5,5,5,5,5,5,0,0,0,0,0,0,0,0,0,0,0,0,0,0,0,0,0,0,0,0,0,0,0,0,0,0,0,0,0,0,0,0,0,0,0,0,0,0],"split_type":[0,0,0,0,0,0,0,0,0,0,0,0,0,0,0,0,0,0,0,0,0,0,0,0,0,0,0,0,0,0,0,0,0,0,0,0,0,0,0,0,0,0,0,0,0,0,0,0,0,0,0,0,0,0,0,0,0,0,0,0,0,0,0,0,0,0,0,0,0,0,0,0,0,0,0,0,0,0,0,0,0,0,0,0,0,0,0,0,0,0,0],"sum_hessian":[4.1872E4,2.5997E4,1.5875E4,1.6201E4,9.796E3,8.343E3,7.532E3,7.692E3,8.509E3,6.035E3,3.761E3,3.929E3,4.414E3,1.316E3,6.216E3,2.943E3,4.749E3,6.218E3,2.291E3,3.107E3,2.928E3,2.126E3,1.635E3,2.128E3,1.801E3,3.107E3,1.307E3,6.62E2,6.54E2,3.272E3,2.944E3,1.474E3,1.469E3,1.966E3,2.783E3,2.619E3,3.599E3,6.51E2,1.64E3,1.633E3,1.474E3,1.142E3,1.786E3,1.308E3,8.18E2,8.2E2,8.15E2,9.83E2,1.145E3,6.53E2,1.148E3,1.468E3,1.639E3,8.21E2,4.86E2,8.18E2,2.454E3,1.799E3,1.145E3,2.129E3,1.47E3,1.15E3,4.9E2,8.17E2,8.16E2,6.57E2,8.17E2,8.15E2,3.27E2,1.461E3,3.25E2,9.84E2,3.24E2,3.27E2,4.91E2,4.9E2,3.3E2,1.6E2,6.55E2,6.56E2,3.27E2,1.64E2,9.81E2,1.62E2,4.91E2,4.91E2,6.57E2,8.12E2,6.56E2,8.24E2,8.15E2],"tree_param":{"num_deleted":"0","num_feature":"7","num_nodes":"91","size_leaf_vector":"1"}},{"base_weights":[1.0068285E-2,-4.5435693E2,7.440661E2,-6.228751E2,-1.8307199E2,4.313966E2,1.0902987E3,-7.134144E2,-5.4903723E2,-2.830159E2,-1.8256647E1,3.09519E2,5.485028E2,8.866941E2,1.1399349E3,-7.822089E2,-6.656708E2,-5.792431E2,-4.53416E2,-3.4164865E2,-2.2965424E2,-8.7087715E1,7.1243324E1,2.4049731E2,3.842198E2,5.0150427E2,6.53974E2,8.2657446E2,9.612472E1,1.1082236E3,1.18106346E2,-7.974435E1,-7.663906E1,-6.875066E1,-6.49394E1,-6.1157112E1,-5.5838184E2,-4.8837162E1,-4.4264786E2,-3.6753937E2,-3.0925192E2,-2.6365536E2,-2.0167029E2,-1.19972664E2,-3.442168E1,2.8961126E1,1.1369729E2,1.8075671E2,2.7763464E2,3.5463287E2,4.0517972E2,4.614789E2,5.3312115E2,6.0565437E1,7.0107574E2,7.806696E1,8.55938E1,1.0742462E2,1.1247504E2,-5.7059273E1,-5.4488014E1,-4.5156517E1,-4.2849728E1,-3.8876675E1,-3.581506E1,-3.287068E1,-2.9734177E1,-2.7495718E1,-2.4899914E1,-2.1057173E1,-1.7767899E1,-1.3783701E1,-1.13834715E1,-5.6629534E0,-1.9546483E0,2.1417193E0,5.882417E0,8.357398E0,1.2091704E1,1.5664401E1,1.8655493E1,2.4552374E1,2.8814276E1,3.246893E1,3.614907E1,3.9395813E1,4.192043E1,4.4473305E1,4.77395E1,5.199284E1,5.5221607E1,6.71528E1,7.285762E1],"categories":[],"categories_nodes":[],"categories_segments":[],"categories_sizes":[],"default_left":[0,0,0,0,0,0,0,0,0,0,0,0,0,0,0,0,0,0,0,0,0,0,0,0,0,0,0,0,0,0,0,0,0,0,0,0,0,0,0,0,0,0,0,0,0,0,0,0,0,0,0,0,0,0,0,0,0,0,0,0,0,0,0,0,0,0,0,0,0,0,0,0,0,0,0,0,0,0,0,0,0,0,0,0,0,0,0,0,0,0,0,0,0],"id":1,"left_children":[1,3,5,7,9,11,13,15,17,19,21,23,25,27,29,31,33,35,37,39,41,43,45,47,49,51,53,55,-1,57,-1,-1,-1,-1,-1,-1,59,-1,61,63,65,67,69,71,73,75,77,79,81,83,85,87,89,-1,91,-1,-1,-1,-1,-1,-1,-1,-1,-1,-1,-1,-1,-1,-1,-1,-1,-1,-1,-1,-1,-1,-1,-1,-1,-1,-1,-1,-1,-1,-1,-1,-1,-1,-1,-1,-1,-1,-1],"loss_changes":[1.4156532E10,1.1884221E9,1.7182075E9,1.0681293E8,1.6410826E8,1.1892109E8,7.511962E7,2.3127808E7,2.5261312E7,1.9326016E7,2.318155E7,2.1000672E7,2.075904E7,5.843584E6,6.585856E6,9.8304E4,1.066496E6,4.185344E6,5.84032E5,2.363232E6,3.039152E6,3.679664E6,2.933405E6,4.673224E6,1.073632E6,3.483328E6,2.55232E6,4.46528E5,0E0,7.20128E5,0E0,0E0,0E0,0E0,0E0,0E0,3.63648E5,0E0,1.2928E4,1.86816E5,2.07664E5,1.74032E5,3.44208E5,1.27842E5,2.694467E5,1.8369888E5,1.67359E5,8.5284E4,3.71632E5,5.1432E4,1.4576E4,1.3632E5,1.26016E5,0E0,4.3776E4,0E0,0E0,0E0,0E0,0E0,0E0,0E0,0E0,0E0,0E0,0E0,0E0,0E0,0E0,0E0,0E0,0E0,0E0,0E0,0E0,0E0,0E0,0E0,0E0,0E0,0E0,0E0,0E0,0E0,0E0,0E0,0E0,0E0,0E0,0E0,0E0,0E0,0E0],"parents":[2147483647,0,0,1,1,2,2,3,3,4,4,5,5,6,6,7,7,8,8,9,9,10,10,11,11,12,12,13,13,14,14,15,15,16,16,17,17,18,18,19,19,20,20,21,21,22,22,23,23,24,24,25,25,26,26,27,27,29,29,36,36,38,38,39,39,40,40,41,41,42,42,43,43,44,44,45,45,46,46,47,47,48,48,49,49,50,50,51,51,52,52,54,54],"right_children":[2,4,6,8,10,12,14,16,18,20,22,24,26,28,30,32,34,36,38,40,42,44,46,48,50,52,54,56,-1,58,-1,-1,-1,-1,-1,-1,60,-1,62,64,66,68,70,72,74,76,78,80,82,84,86,88,90,-1,92,-1,-1,-1,-1,-1,-1,-1,-1,-1,-1,-1,-1,-1,-1,-1,-1,-1,-1,-1,-1,-1,-1,-1,-1,-1,-1,-1,-1,-1,-1,-1,-1,-1,-1,-1,-1,-1,-1],"split_conditions":[2.2154373E-1,-6.3086504E-1,1.1570019E0,-9.735332E-1,-2.424267E-1,6.600191E-1,1.5689154E0,-1.1506938E0,-7.9203755E-1,-4.4112104E-1,-1.0502091E-2,4.830784E-1,8.863756E-1,1.3778347E0,1.7545346E0,-1.2199391E0,-1.0299135E0,-9.057702E-1,-7.2362316E-1,-5.2473426E-1,-3.5825297E-1,-1.3107671E-1,1.0633698E-1,3.3145082E-1,5.7877046E-1,7.650788E-1,9.830823E-1,1.2467468E0,9.612472E1,1.6846223E0,1.18106346E2,-7.974435E1,-7.663906E1,-6.875066E1,-6.49394E1,-6.1157112E1,-8.599466E-1,-4.8837162E1,-6.7775285E-1,-5.8055836E-1,-4.8837116E-1,-4.0583834E-1,-3.0117366E-1,-2.0150699E-1,-5.6757454E-2,6.806975E-2,1.4456338E-1,2.5036958E-1,4.028508E-1,5.118975E-1,6.2522066E-1,7.023856E-1,8.205089E-1,6.0565437E1,1.0738505E0,7.806696E1,8.55938E1,1.0742462E2,1.1247504E2,-5.7059273E1,-5.4488014E1,-4.5156517E1,-4.2849728E1,-3.8876675E1,-3.581506E1,-3.287068E1,-2.9734177E1,-2.7495718E1,-2.4899914E1,-2.1057173E1,-1.7767899E1,-1.3783701E1,-1.13834715E1,-5.6629534E0,-1.9546483E0,2.1417193E0,5.882417E0,8.357398E0,1.2091704E1,1.5664401E1,1.8655493E1,2.4552374E1,2.8814276E1,3.246893E1,3.614907E1,3.9395813E1,4.192043E1,4.4473305E1,4.77395E1,5.199284E1,5.5221607E1,6.71528E1,7.285762E1],"split_indices":[5,5,5,5,5,5,5,5,5,5,5,5,5,5,5,6,5,5,5,5,5,5,5,5,5,5,5,5,0,5,0,0,0,0,0,0,5,0,5,5,5,5,5,5,5,5,5,5,5,5,5,5,5,0,5,0,0,0,0,0,0,0,0,0,0,0,0,0,0,0,0,0,0,0,0,0,0,0,0,0,0,0,0,0,0,0,0,0,0,0,0,0,0],"split_type":[0,0,0,0,0,0,0,0,0,0,0,0,0,0,0,0,0,0,0,0,0,0,0,0,0,0,0,0,0,0,0,0,0,0,0,0,0,0,0,0,0,0,0,0,0,0,0,0,0,0,0,0,0,0,0,0,0,0,0,0,0,0,0,0,0,0,0,0,0,0,0,0,0,0,0,0,0,0,0,0,0,0,0,0,0,0,0,0,0,0,0,0,0],"sum_hessian":[4.1872E4,2.5997E4,1.5875E4,1.6035E4,9.962E3,8.343E3,7.532E3,7.199E3,8.836E3,6.201E3,3.761E3,4.09E3,4.253E3,1.48E3,6.052E3,2.943E3,4.256E3,6.711E3,2.125E3,2.952E3,3.249E3,2.126E3,1.635E3,2.128E3,1.962E3,2.946E3,1.307E3,8.26E2,6.54E2,3.433E3,2.619E3,1.474E3,1.469E3,1.8E3,2.456E3,2.621E3,4.09E3,4.9E2,1.635E3,1.635E3,1.317E3,1.463E3,1.786E3,1.308E3,8.18E2,8.2E2,8.15E2,8.18E2,1.31E3,8.21E2,1.141E3,1.307E3,1.639E3,6.52E2,6.55E2,3.33E2,4.93E2,1.145E3,2.288E3,2.126E3,1.964E3,9.84E2,6.51E2,4.89E2,1.146E3,4.9E2,8.27E2,8.16E2,6.47E2,1.297E3,4.89E2,3.29E2,9.79E2,3.27E2,4.91E2,6.56E2,1.64E2,1.6E2,6.55E2,1.64E2,6.54E2,3.29E2,9.81E2,1.62E2,6.59E2,6.5E2,4.91E2,6.51E2,6.56E2,9.86E2,6.53E2,3.28E2,3.27E2],"tree_param":{"num_deleted":"0","num_feature":"7","num_nodes":"93","size_leaf_vector":"1"}},{"base_weights":[1.8679945E-2,-4.0895328E2,6.697373E2,-5.5858875E2,-1.6144856E2,3.8833337E2,9.8134814E2,-6.341225E2,-4.844548E2,-2.4868347E2,-1.1148301E1,2.7862518E2,4.937466E2,7.8442285E2,1.0229066E3,-7.040451E2,-5.934676E2,-5.138484E2,-4.0049805E2,-2.9443982E2,-1.925238E2,-7.385432E1,6.41364E1,2.1648872E2,3.4587424E2,4.5142154E2,5.887299E2,7.315056E1,8.367889E1,9.818626E2,1.0524902E3,-7.177531E1,-6.898116E1,-6.1463417E1,-5.7583984E1,-5.3485046E2,-4.9379504E2,-4.1470333E1,-3.8362198E1,-3.2240387E2,-2.6312683E2,-2.2019379E2,-1.7288121E2,-9.946249E1,-2.2407597E1,2.6074778E1,1.0235264E2,1.7054189E2,2.5575156E2,3.1925308E2,3.64733E2,4.1092346E2,4.769262E2,5.4518166E1,6.311816E2,9.274377E1,9.9398445E1,1.03233574E2,1.0808129E2,-5.4755188E1,-5.2175983E1,-4.9975048E1,-4.7087776E1,-3.340874E1,-3.0804743E1,-2.7682758E1,-2.5347631E1,-2.3112066E1,-2.0399633E1,-1.8129354E1,-1.3870313E1,-1.0774878E1,-7.430037E0,-3.6793878E0,-1.7595866E0,1.4711475E0,4.285214E0,8.533872E0,1.1361336E1,1.5717977E1,1.9678694E1,2.4021683E1,2.6166077E1,3.0235996E1,3.2985752E1,3.546229E1,3.7736908E1,3.9593254E1,4.215565E1,4.6236637E1,4.939527E1,6.0457928E1,6.559406E1],"categories":[],"categories_nodes":[],"categories_segments":[],"categories_sizes":[],"default_left":[0,0,0,0,0,0,0,0,0,0,0,0,0,0,0,0,0,0,0,0,0,0,0,0,0,0,0,0,0,0,0,0,0,0,0,0,0,0,0,0,0,0,0,0,0,0,0,0,0,0,0,0,0,0,0,0,0,0,0,0,0,0,0,0,0,0,0,0,0,0,0,0,0,0,0,0,0,0,0,0,0,0,0,0,0,0,0,0,0,0,0,0,0],"id":2,"left_children":[1,3,5,7,9,11,13,15,17,19,21,23,25,27,29,31,33,35,37,39,41,43,45,47,49,51,53,-1,-1,55,57,-1,-1,-1,-1,59,61,-1,-1,63,65,67,69,71,73,75,77,79,81,83,85,87,89,-1,91,-1,-1,-1,-1,-1,-1,-1,-1,-1,-1,-1,-1,-1,-1,-1,-1,-1,-1,-1,-1,-1,-1,-1,-1,-1,-1,-1,-1,-1,-1,-1,-1,-1,-1,-1,-1,-1,-1],"loss_changes":[1.1469126E10,9.6275866E8,1.3917619E9,9.041766E7,1.2844987E8,9.635814E7,6.0847104E7,2.2386432E7,1.998336E7,1.5872672E7,1.6994908E7,1.701984E7,1.6836096E7,3.037376E6,6.5152E6,7.9232E4,1.54112E6,2.286464E6,3.5056E5,2.904576E6,1.476152E6,2.585256E6,2.377011E6,3.797112E6,8.69056E5,2.848E6,2.073984E6,0E0,0E0,8.06144E5,9.38752E5,0E0,0E0,0E0,0E0,2.04096E5,1.89312E5,0E0,0E0,1.98864E5,1.43496E5,1.56924E5,4.44664E5,2.65339E5,4.4624375E4,1.5589012E5,1.46641E5,3.14148E5,4.2336E4,4.752E4,1.208E4,1.5792E4,2.18272E5,0E0,3.5504E4,0E0,0E0,0E0,0E0,0E0,0E0,0E0,0E0,0E0,0E0,0E0,0E0,0E0,0E0,0E0,0E0,0E0,0E0,0E0,0E0,0E0,0E0,0E0,0E0,0E0,0E0,0E0,0E0,0E0,0E0,0E0,0E0,0E0,0E0,0E0,0E0,0E0,0E0],"parents":[2147483647,0,0,1,1,2,2,3,3,4,4,5,5,6,6,7,7,8,8,9,9,10,10,11,11,12,12,13,13,14,14,15,15,16,16,17,17,18,18,19,19,20,20,21,21,22,22,23,23,24,24,25,25,26,26,29,29,30,30,35,35,36,36,39,39,40,40,41,41,42,42,43,43,44,44,45,45,46,46,47,47,48,48,49,49,50,50,51,51,52,52,54,54],"right_children":[2,4,6,8,10,12,14,16,18,20,22,24,26,28,30,32,34,36,38,40,42,44,46,48,50,52,54,-1,-1,56,58,-1,-1,-1,-1,60,62,-1,-1,64,66,68,70,72,74,76,78,80,82,84,86,88,90,-1,92,-1,-1,-1,-1,-1,-1,-1,-1,-1,-1,-1,-1,-1,-1,-1,-1,-1,-1,-1,-1,-1,-1,-1,-1,-1,-1,-1,-1,-1,-1,-1,-1,-1,-1,-1,-1,-1,-1],"split_conditions":[2.2154373E-1,-6.086836E-1,1.1570019E0,-9.525207E-1,-2.1659519E-1,6.600191E-1,1.521703E0,-1.1457319E0,-7.646851E-1,-4.149215E-1,-1.0502091E-2,4.830784E-1,8.863756E-1,1.3333858E0,1.7259065E0,-1.2199391E0,-1.0153816E0,-8.78295E-1,-6.8457735E-1,-5.026294E-1,-3.374066E-1,-9.1995575E-2,1.0633698E-1,3.71505E-1,5.7877046E-1,7.481857E-1,9.830823E-1,7.315056E1,8.367889E1,1.6290834E0,1.7964174E0,-7.177531E1,-6.898116E1,-6.1463417E1,-5.7583984E1,-9.1735446E-1,-8.2920396E-1,-4.1470333E1,-3.8362198E1,-5.5016154E-1,-4.5547193E-1,-3.7414774E-1,-2.6694575E-1,-1.5825383E-1,-5.6757454E-2,4.7140453E-2,1.6694957E-1,2.9692772E-1,4.191923E-1,5.3346574E-1,6.2522066E-1,6.9021773E-1,8.1047374E-1,5.4518166E1,1.0738505E0,9.274377E1,9.9398445E1,1.03233574E2,1.0808129E2,-5.4755188E1,-5.2175983E1,-4.9975048E1,-4.7087776E1,-3.340874E1,-3.0804743E1,-2.7682758E1,-2.5347631E1,-2.3112066E1,-2.0399633E1,-1.8129354E1,-1.3870313E1,-1.0774878E1,-7.430037E0,-3.6793878E0,-1.7595866E0,1.4711475E0,4.285214E0,8.533872E0,1.1361336E1,1.5717977E1,1.9678694E1,2.4021683E1,2.6166077E1,3.0235996E1,3.2985752E1,3.546229E1,3.7736908E1,3.9593254E1,4.215565E1,4.6236637E1,4.939527E1,6.0457928E1,6.559406E1],"split_indices":[5,5,5,5,5,5,5,4,5,5,5,5,5,5,5,6,5,5,5,5,5,5,5,5,5,5,5,0,0,5,5,0,0,0,0,5,5,0,0,5,5,5,5,5,5,5,5,5,5,5,5,5,5,0,5,0,0,0,0,0,0,0,0,0,0,0,0,0,0,0,0,0,0,0,0,0,0,0,0,0,0,0,0,0,0,0,0,0,0,0,0,0,0],"split_type":[0,0,0,0,0,0,0,0,0,0,0,0,0,0,0,0,0,0,0,0,0,0,0,0,0,0,0,0,0,0,0,0,0,0,0,0,0,0,0,0,0,0,0,0,0,0,0,0,0,0,0,0,0,0,0,0,0,0,0,0,0,0,0,0,0,0,0,0,0,0,0,0,0,0,0,0,0,0,0,0,0,0,0,0,0,0,0,0,0,0,0,0,0],"sum_hessian":[4.1872E4,2.5997E4,1.5875E4,1.6201E4,9.796E3,8.343E3,7.532E3,8.021E3,8.18E3,6.198E3,3.598E3,4.09E3,4.253E3,1.316E3,6.216E3,2.943E3,5.078E3,6.055E3,2.125E3,3.413E3,2.785E3,1.963E3,1.635E3,2.128E3,1.962E3,2.946E3,1.307E3,6.62E2,6.54E2,2.618E3,3.598E3,1.474E3,1.469E3,2.292E3,2.786E3,2.945E3,3.11E3,1.141E3,9.84E2,1.798E3,1.615E3,1.152E3,1.633E3,1.31E3,6.53E2,8.2E2,8.15E2,9.83E2,1.145E3,8.21E2,1.141E3,1.145E3,1.801E3,6.52E2,6.55E2,4.91E2,2.127E3,2.124E3,1.474E3,1.474E3,1.471E3,2.452E3,6.58E2,9.79E2,8.19E2,6.56E2,9.59E2,6.8E2,4.72E2,1.307E3,3.26E2,9.83E2,3.27E2,1.62E2,4.91E2,4.9E2,3.3E2,3.28E2,4.87E2,6.56E2,3.27E2,3.27E2,8.18E2,3.28E2,4.93E2,6.5E2,4.91E2,4.91E2,6.54E2,9.86E2,8.15E2,3.28E2,3.27E2],"tree_param":{"num_deleted":"0","num_feature":"7","num_nodes":"93","size_leaf_vector":"1"}},{"base_weights":[2.650537E-2,-3.6808618E2,6.028354E2,-5.046189E2,-1.4829227E2,3.5468054E2,8.8919226E2,-5.8281683E2,-4.4825015E2,-2.2926369E2,-1.4764087E1,2.5474806E2,4.5462363E2,7.3089026E2,9.235145E2,-6.3369214E2,-5.429442E2,-4.7329578E2,-3.7112393E2,-2.7949457E2,-1.883483E2,-7.560081E1,5.1731422E1,1.9488E2,3.1452454E2,4.1302725E2,5.4865735E2,6.922438E2,7.941583E1,9.0011145E2,9.614977E1,-6.460265E1,-6.208847E1,-5.6073597E1,-5.3120594E1,-4.9913412E2,-4.5455338E2,-4.0936287E1,-3.60487E2,-2.9772012E2,-2.5325522E2,-2.1814809E2,-1.6556795E2,-9.725649E1,-3.2339184E1,1.8133673E1,9.2141785E1,1.4624066E2,2.2511705E2,2.9085223E2,3.3447928E2,3.7684076E2,4.356505E2,5.0767876E1,5.8891796E1,6.56666E1,7.150615E1,8.7212746E1,9.146258E1,-5.0547337E1,-4.8595432E1,-4.6596127E1,-4.4539295E1,-3.7113106E1,-3.512629E1,-3.1172926E1,-2.8802448E1,-2.6618479E1,-2.4320704E1,-2.2648817E1,-2.0804255E1,-1.7296797E1,-1.4327168E1,-1.0571052E1,-8.865398E0,-5.7224917E0,-2.3877046E0,-4.5166537E-1,2.9431195E0,6.6787667E0,9.822391E0,1.25451765E1,1.5125429E1,1.9926834E1,2.3357424E1,2.7754612E1,3.0367239E1,3.2262127E1,3.4285015E1,3.659181E1,3.9075153E1,4.2320126E1,4.5660004E1],"categories":[],"categories_nodes":[],"categories_segments":[],"categories_sizes":[],"default_left":[0,0,0,0,0,0,0,0,0,0,0,0,0,0,0,0,0,0,0,0,0,0,0,0,0,0,0,0,0,0,0,0,0,0,0,0,0,0,0,0,0,0,0,0,0,0,0,0,0,0,0,0,0,0,0,0,0,0,0,0,0,0,0,0,0,0,0,0,0,0,0,0,0,0,0,0,0,0,0,0,0,0,0,0,0,0,0,0,0,0,0,0,0],"id":3,"left_children":[1,3,5,7,9,11,13,15,17,19,21,23,25,27,29,31,33,35,37,39,41,43,45,47,49,51,53,55,-1,57,-1,-1,-1,-1,-1,59,61,-1,63,65,67,69,71,73,75,77,79,81,83,85,87,89,91,-1,-1,-1,-1,-1,-1,-1,-1,-1,-1,-1,-1,-1,-1,-1,-1,-1,-1,-1,-1,-1,-1,-1,-1,-1,-1,-1,-1,-1,-1,-1,-1,-1,-1,-1,-1,-1,-1,-1,-1],"loss_changes":[9.291907E9,7.801006E8,1.1278469E9,7.042432E7,1.0771626E8,8.484838E7,3.936819E7,1.3275648E7,1.7833344E7,1.269376E7,1.5222588E7,1.5169664E7,1.6404864E7,2.672896E6,4.515328E6,6.3872E4,4.89728E5,3.17952E6,7.83904E5,1.255024E6,2.286232E6,1.837785E6,2.439469E6,3.098224E6,9.0792E5,2.252544E6,1.847456E6,2.00992E5,0E0,7.29856E5,0E0,0E0,0E0,0E0,0E0,5.76E2,2.19648E5,0E0,4.6352E4,1.32432E5,8.428E4,7.7528E4,2.958E5,8.5826E4,1.36989E5,2.5167528E5,1.19273E5,6.6388E4,2.40048E5,8.3072E4,3.336E3,3.0704E4,2.78816E5,0E0,0E0,0E0,0E0,0E0,0E0,0E0,0E0,0E0,0E0,0E0,0E0,0E0,0E0,0E0,0E0,0E0,0E0,0E0,0E0,0E0,0E0,0E0,0E0,0E0,0E0,0E0,0E0,0E0,0E0,0E0,0E0,0E0,0E0,0E0,0E0,0E0,0E0,0E0,0E0],"parents":[2147483647,0,0,1,1,2,2,3,3,4,4,5,5,6,6,7,7,8,8,9,9,10,10,11,11,12,12,13,13,14,14,15,15,16,16,17,17,18,18,19,19,20,20,21,21,22,22,23,23,24,24,25,25,26,26,27,27,29,29,35,35,36,36,38,38,39,39,40,40,41,41,42,42,43,43,44,44,45,45,46,46,47,47,48,48,49,49,50,50,51,51,52,52],"right_children":[2,4,6,8,10,12,14,16,18,20,22,24,26,28,30,32,34,36,38,40,42,44,46,48,50,52,54,56,-1,58,-1,-1,-1,-1,-1,60,62,-1,64,66,68,70,72,74,76,78,80,82,84,86,88,90,92,-1,-1,-1,-1,-1,-1,-1,-1,-1,-1,-1,-1,-1,-1,-1,-1,-1,-1,-1,-1,-1,-1,-1,-1,-1,-1,-1,-1,-1,-1,-1,-1,-1,-1,-1,-1,-1,-1,-1,-1],"split_conditions":[2.2154373E-1,-6.3086504E-1,1.2028916E0,-9.836319E-1,-2.424267E-1,6.701908E-1,1.5689154E0,-1.1506938E0,-8.105367E-1,-4.4684097E-1,-2.8812971E-2,4.830784E-1,9.138745E-1,1.4279742E0,1.7650942E0,-1.2199391E0,-1.042082E0,-9.113118E-1,-7.404935E-1,-5.2473426E-1,-3.7414774E-1,-1.3107671E-1,1.0633698E-1,3.3145082E-1,5.8915704E-1,7.650788E-1,1.0308784E0,1.2887704E0,7.941583E1,1.6907171E0,9.614977E1,-6.460265E1,-6.208847E1,-5.6073597E1,-5.3120594E1,-9.383958E-1,-8.6819255E-1,-4.0936287E1,-6.9109976E-1,-5.72146E-1,-4.8837116E-1,-4.149215E-1,-3.0117366E-1,-1.8695419E-1,-9.1995575E-2,1.6269332E-2,1.4456338E-1,2.5036958E-1,4.028508E-1,5.492753E-1,6.2522066E-1,7.148837E-1,8.329374E-1,5.0767876E1,5.8891796E1,6.56666E1,7.150615E1,8.7212746E1,9.146258E1,-5.0547337E1,-4.8595432E1,-4.6596127E1,-4.4539295E1,-3.7113106E1,-3.512629E1,-3.1172926E1,-2.8802448E1,-2.6618479E1,-2.4320704E1,-2.2648817E1,-2.0804255E1,-1.7296797E1,-1.4327168E1,-1.0571052E1,-8.865398E0,-5.7224917E0,-2.3877046E0,-4.5166537E-1,2.9431195E0,6.6787667E0,9.822391E0,1.25451765E1,1.5125429E1,1.9926834E1,2.3357424E1,2.7754612E1,3.0367239E1,3.2262127E1,3.4285015E1,3.659181E1,3.9075153E1,4.2320126E1,4.5660004E1],"split_indices":[5,5,5,5,5,5,5,5,5,5,5,5,5,5,5,6,5,5,5,5,5,5,5,5,5,5,5,5,0,5,0,0,0,0,0,5,5,0,5,5,5,5,5,5,5,5,5,5,5,5,5,5,5,0,0,0,0,0,0,0,0,0,0,0,0,0,0,0,0,0,0,0,0,0,0,0,0,0,0,0,0,0,0,0,0,0,0,0,0,0,0,0,0],"split_type":[0,0,0,0,0,0,0,0,0,0,0,0,0,0,0,0,0,0,0,0,0,0,0,0,0,0,0,0,0,0,0,0,0,0,0,0,0,0,0,0,0,0,0,0,0,0,0,0,0,0,0,0,0,0,0,0,0,0,0,0,0,0,0,0,0,0,0,0,0,0,0,0,0,0,0,0,0,0,0,0,0,0,0,0,0,0,0,0,0,0,0,0,0],"sum_hessian":[4.1872E4,2.5997E4,1.5875E4,1.6035E4,9.962E3,8.506E3,7.369E3,6.713E3,9.322E3,6.201E3,3.761E3,4.255E3,4.251E3,1.317E3,6.052E3,2.943E3,3.77E3,7.033E3,2.289E3,2.781E3,3.42E3,1.964E3,1.797E3,2.128E3,2.127E3,2.951E3,1.3E3,8.25E2,4.92E2,3.76E3,2.292E3,1.474E3,1.469E3,1.48E3,2.29E3,2.946E3,4.087E3,4.9E2,1.799E3,1.635E3,1.146E3,1.478E3,1.942E3,1.308E3,6.56E2,9.82E2,8.15E2,8.18E2,1.31E3,9.8E2,1.147E3,1.142E3,1.809E3,6.51E2,6.49E2,3.34E2,4.91E2,1.305E3,2.455E3,1.964E3,9.82E2,1.798E3,2.289E3,8.17E2,9.82E2,6.56E2,9.79E2,4.9E2,6.56E2,7.98E2,6.8E2,1.453E3,4.89E2,6.54E2,6.54E2,1.65E2,4.91E2,3.27E2,6.55E2,1.6E2,6.55E2,1.64E2,6.54E2,3.29E2,9.81E2,4.92E2,4.88E2,4.91E2,6.56E2,6.55E2,4.87E2,1.148E3,6.61E2],"tree_param":{"num_deleted":"0","num_feature":"7","num_nodes":"93","size_leaf_vector":"1"}},{"base_weights":[2.9273061E-2,-3.313058E2,5.426123E2,-4.541906E2,-1.3348257E2,3.1461523E2,7.950835E2,-5.2316583E2,-4.0239648E2,-2.0386507E2,-8.970761E0,2.2221175E2,3.9679672E2,6.357201E2,8.2871484E2,-5.7036835E2,-4.8768185E2,-4.251032E2,-3.340609E2,-2.4489536E2,-1.6035373E2,-5.977108E1,5.2019943E1,1.7121901E2,2.7311734E2,3.5985876E2,4.7070428E2,5.8014156E1,6.6869867E2,7.9846643E2,8.5564386E2,-5.8155994E1,-5.587817E1,-5.035133E1,-4.7617695E1,-4.483945E1,-4.0912033E2,-3.6850994E1,-3.244784E2,-2.659841E2,-2.1899393E2,-1.8576018E2,-1.4164673E2,-8.4543015E1,-2.5035536E1,2.1217041E1,8.2947845E1,1.3165033E2,1.9929875E2,2.48501E2,2.9038315E2,3.30387E2,3.8309854E2,4.371703E1,5.1154642E2,6.437007E1,7.0404915E1,7.574276E1,8.098609E1,8.435467E1,8.907753E1,-4.186629E1,-4.001257E1,-3.29921E1,-3.092545E1,-2.8060373E1,-2.5735554E1,-2.3364395E1,-2.1144636E1,-1.9377102E1,-1.7212408E1,-1.5030251E1,-1.183989E1,-8.727736E0,-6.75176E0,-5.153686E0,-1.827062E0,1.5012724E0,4.5792913E0,6.8567147E0,9.247305E0,1.2358502E1,1.4340735E1,1.7940186E1,2.0707247E1,2.3047186E1,2.5994207E1,2.797016E1,2.9792862E1,3.1853638E1,3.4169704E1,3.688269E1,3.9217224E1,4.8976543E1,5.3183422E1],"categories":[],"categories_nodes":[],"categories_segments":[],"categories_sizes":[],"default_left":[0,0,0,0,0,0,0,0,0,0,0,0,0,0,0,0,0,0,0,0,0,0,0,0,0,0,0,0,0,0,0,0,0,0,0,0,0,0,0,0,0,0,0,0,0,0,0,0,0,0,0,0,0,0,0,0,0,0,0,0,0,0,0,0,0,0,0,0,0,0,0,0,0,0,0,0,0,0,0,0,0,0,0,0,0,0,0,0,0,0,0,0,0,0,0],"id":4,"left_children":[1,3,5,7,9,11,13,15,17,19,21,23,25,27,29,31,33,35,37,39,41,43,45,47,49,51,53,-1,55,57,59,-1,-1,-1,-1,-1,61,-1,63,65,67,69,71,73,75,77,79,81,83,85,87,89,91,-1,93,-1,-1,-1,-1,-1,-1,-1,-1,-1,-1,-1,-1,-1,-1,-1,-1,-1,-1,-1,-1,-1,-1,-1,-1,-1,-1,-1,-1,-1,-1,-1,-1,-1,-1,-1,-1,-1,-1,-1,-1],"loss_changes":[7.527973E9,6.31937E8,9.1361536E8,5.707853E7,8.730845E7,6.3274944E7,3.9847424E7,1.1235328E7,1.4076032E7,1.1324032E7,1.115406E7,1.0154784E7,1.188352E7,2.026016E6,4.380928E6,5.6768E4,4.7616E5,2.375424E6,6.36368E5,1.730096E6,1.443248E6,1.6878405E6,1.5568065E6,2.158144E6,7.63008E5,1.892576E6,1.786912E6,0E0,2.71392E5,7.62624E5,6.40256E5,0E0,0E0,0E0,0E0,0E0,1.83296E5,0E0,4.712E4,1.54848E5,1.13696E5,1.09524E5,3.41396E5,4.7457E4,1.4588803E5,1.2449572E5,1.054345E5,5.9938E4,1.4042E5,1.08616E5,9.28E3,6.6336E4,6.7984E4,0E0,2.9408E4,0E0,0E0,0E0,0E0,0E0,0E0,0E0,0E0,0E0,0E0,0E0,0E0,0E0,0E0,0E0,0E0,0E0,0E0,0E0,0E0,0E0,0E0,0E0,0E0,0E0,0E0,0E0,0E0,0E0,0E0,0E0,0E0,0E0,0E0,0E0,0E0,0E0,0E0,0E0,0E0],"parents":[2147483647,0,0,1,1,2,2,3,3,4,4,5,5,6,6,7,7,8,8,9,9,10,10,11,11,12,12,13,13,14,14,15,15,16,16,17,17,18,18,19,19,20,20,21,21,22,22,23,23,24,24,25,25,26,26,28,28,29,29,30,30,36,36,38,38,39,39,40,40,41,41,42,42,43,43,44,44,45,45,46,46,47,47,48,48,49,49,50,50,51,51,52,52,54,54],"right_children":[2,4,6,8,10,12,14,16,18,20,22,24,26,28,30,32,34,36,38,40,42,44,46,48,50,52,54,-1,56,58,60,-1,-1,-1,-1,-1,62,-1,64,66,68,70,72,74,76,78,80,82,84,86,88,90,92,-1,94,-1,-1,-1,-1,-1,-1,-1,-1,-1,-1,-1,-1,-1,-1,-1,-1,-1,-1,-1,-1,-1,-1,-1,-1,-1,-1,-1,-1,-1,-1,-1,-1,-1,-1,-1,-1,-1,-1,-1,-1],"split_conditions":[2.2154373E-1,-6.3086504E-1,1.1570019E0,-9.801009E-1,-2.1659519E-1,6.4745384E-1,1.521703E0,-1.1457319E0,-8.105367E-1,-4.3006906E-1,-1.0502091E-2,4.5952818E-1,8.6091626E-1,1.2887704E0,1.7357686E0,-1.2049006E0,-9.17495E-1,-9.113118E-1,-7.404935E-1,-5.148236E-1,-3.4515485E-1,-1.3107671E-1,1.0633698E-1,3.3145082E-1,5.6646466E-1,7.481857E-1,9.830823E-1,5.8014156E1,1.4279742E0,1.6469985E0,1.8253592E0,-5.8155994E1,-5.587817E1,-5.035133E1,-4.7617695E1,-4.483945E1,-8.65565E-1,-3.6850994E1,-6.7003137E-1,-5.72146E-1,-4.7592565E-1,-3.8712403E-1,-2.8683305E-1,-1.5825383E-1,-9.1995575E-2,6.806975E-2,1.6694957E-1,2.810128E-1,4.028508E-1,5.118975E-1,6.008865E-1,6.9021773E-1,7.950859E-1,4.371703E1,1.0738505E0,6.437007E1,7.0404915E1,7.574276E1,8.098609E1,8.435467E1,8.907753E1,-4.186629E1,-4.001257E1,-3.29921E1,-3.092545E1,-2.8060373E1,-2.5735554E1,-2.3364395E1,-2.1144636E1,-1.9377102E1,-1.7212408E1,-1.5030251E1,-1.183989E1,-8.727736E0,-6.75176E0,-5.153686E0,-1.827062E0,1.5012724E0,4.5792913E0,6.8567147E0,9.247305E0,1.2358502E1,1.4340735E1,1.7940186E1,2.0707247E1,2.3047186E1,2.5994207E1,2.797016E1,2.9792862E1,3.1853638E1,3.4169704E1,3.688269E1,3.9217224E1,4.8976543E1,5.3183422E1],"split_indices":[5,5,5,5,5,5,5,4,5,5,5,5,5,5,5,5,4,5,5,5,5,5,5,5,5,5,5,0,5,5,5,0,0,0,0,0,5,0,5,5,5,5,5,5,5,5,5,5,5,5,5,5,5,0,5,0,0,0,0,0,0,0,0,0,0,0,0,0,0,0,0,0,0,0,0,0,0,0,0,0,0,0,0,0,0,0,0,0,0,0,0,0,0,0,0],"split_type":[0,0,0,0,0,0,0,0,0,0,0,0,0,0,0,0,0,0,0,0,0,0,0,0,0,0,0,0,0,0,0,0,0,0,0,0,0,0,0,0,0,0,0,0,0,0,0,0,0,0,0,0,0,0,0,0,0,0,0,0,0,0,0,0,0,0,0,0,0,0,0,0,0,0,0,0,0,0,0,0,0,0,0,0,0,0,0,0,0,0,0,0,0,0,0],"sum_hessian":[4.1872E4,2.5997E4,1.5875E4,1.6035E4,9.962E3,8.343E3,7.532E3,6.873E3,9.162E3,6.364E3,3.598E3,3.929E3,4.414E3,1.316E3,6.216E3,2.943E3,3.93E3,6.873E3,2.289E3,3.273E3,3.091E3,1.963E3,1.635E3,1.965E3,1.964E3,2.947E3,1.467E3,4.97E2,8.19E2,2.942E3,3.274E3,1.472E3,1.471E3,1.636E3,2.294E3,2.786E3,4.087E3,4.9E2,1.799E3,1.799E3,1.474E3,1.307E3,1.784E3,1.145E3,8.18E2,8.2E2,8.15E2,8.18E2,1.147E3,8.16E2,1.148E3,1.306E3,1.641E3,8.12E2,6.55E2,4.91E2,3.28E2,6.54E2,2.288E3,2.454E3,8.2E2,1.961E3,2.126E3,1.31E3,4.89E2,6.56E2,1.143E3,4.91E2,9.83E2,8.15E2,4.92E2,1.296E3,4.88E2,9.83E2,1.62E2,1.65E2,6.53E2,6.56E2,1.64E2,3.28E2,4.87E2,4.92E2,3.26E2,3.29E2,8.18E2,3.25E2,4.91E2,4.91E2,6.57E2,6.52E2,6.54E2,6.54E2,9.87E2,3.28E2,3.27E2],"tree_param":{"num_deleted":"0","num_feature":"7","num_nodes":"95","size_leaf_vector":"1"}},{"base_weights":[3.545327E-2,-3.0068735E2,4.8437915E2,-4.0879895E2,-1.2373271E2,2.836922E2,7.2042694E2,-4.6601364E2,-3.5808176E2,-1.8578226E2,-1.674133E1,1.9897414E2,3.6523886E2,5.923381E2,7.4819836E2,-5.133473E2,-4.3551205E2,-3.7818387E2,-2.9758807E2,-2.2653915E2,-1.5258392E2,-7.054864E1,2.8111189E1,1.4949153E2,2.4845625E2,3.3195724E2,4.4469592E2,5.523525E1,6.319688E1,7.309851E2,7.836907E1,-5.234434E1,-5.0290974E1,-4.4691333E2,-4.2012585E1,-3.9712042E2,-3.6491733E2,-3.1751432E1,-2.8857822E1,-2.4338744E2,-2.07339E2,-1.7468735E2,-1.3227522E2,-7.868163E1,-3.787594E1,2.474886E0,6.41435E1,1.1440782E2,1.7940251E2,2.2371088E2,2.636994E2,3.0292688E2,3.527527E2,4.119755E2,4.7683286E2,7.080288E1,7.4360374E1,-4.5846706E1,-4.392685E1,-4.0528606E1,-3.886387E1,-3.704195E1,-3.5204067E1,-2.6019566E1,-2.3832033E1,-2.1719902E1,-1.9725344E1,-1.8046461E1,-1.6077896E1,-1.3987613E1,-1.1908416E1,-8.283126E0,-6.5863E0,-4.641422E0,-2.8948143E0,-9.5053625E-1,1.8467871E0,4.73599E0,7.5099854E0,9.73011E0,1.2282569E1,1.5089213E1,1.8403458E1,2.0749533E1,2.3400064E1,2.5402405E1,2.7298695E1,2.943379E1,3.1675604E1,3.4273453E1,3.696079E1,3.9474617E1,4.2729507E1,4.5606194E1,4.95955E1],"categories":[],"categories_nodes":[],"categories_segments":[],"categories_sizes":[],"default_left":[0,0,0,0,0,0,0,0,0,0,0,0,0,0,0,0,0,0,0,0,0,0,0,0,0,0,0,0,0,0,0,0,0,0,0,0,0,0,0,0,0,0,0,0,0,0,0,0,0,0,0,0,0,0,0,0,0,0,0,0,0,0,0,0,0,0,0,0,0,0,0,0,0,0,0,0,0,0,0,0,0,0,0,0,0,0,0,0,0,0,0,0,0,0,0],"id":5,"left_children":[1,3,5,7,9,11,13,15,17,19,21,23,25,27,29,31,33,35,37,39,41,43,45,47,49,51,53,-1,-1,55,-1,-1,-1,57,-1,59,61,-1,-1,63,65,67,69,71,73,75,77,79,81,83,85,87,89,91,93,-1,-1,-1,-1,-1,-1,-1,-1,-1,-1,-1,-1,-1,-1,-1,-1,-1,-1,-1,-1,-1,-1,-1,-1,-1,-1,-1,-1,-1,-1,-1,-1,-1,-1,-1,-1,-1,-1,-1,-1],"loss_changes":[6.0990817E9,4.94176E8,7.5963776E8,4.6365696E7,6.505016E7,5.9830656E7,2.5773824E7,1.065088E7,1.0229888E7,8.357104E6,8.685372E6,1.0381248E7,1.1532992E7,1.739488E6,3.125248E6,4.7232E4,6.16832E5,1.45792E6,2.90064E5,8.49488E5,1.512552E6,4.31749E5,1.8131336E6,2.214668E6,7.42936E5,1.77488E6,1.171616E6,0E0,0E0,6.58432E5,0E0,0E0,0E0,2.9952E4,0E0,2.3744E4,1.36256E5,0E0,0E0,6.3696E4,8.7132E4,1.0236E5,1.62514E5,6.41735E4,2.3659188E4,2.2013228E5,1.4649475E5,1.29603E5,1.2384E5,8.7768E4,4.8368E4,6.2128E4,1.78944E5,3.416E3,3.1984E4,0E0,0E0,0E0,0E0,0E0,0E0,0E0,0E0,0E0,0E0,0E0,0E0,0E0,0E0,0E0,0E0,0E0,0E0,0E0,0E0,0E0,0E0,0E0,0E0,0E0,0E0,0E0,0E0,0E0,0E0,0E0,0E0,0E0,0E0,0E0,0E0,0E0,0E0,0E0,0E0],"parents":[2147483647,0,0,1,1,2,2,3,3,4,4,5,5,6,6,7,7,8,8,9,9,10,10,11,11,12,12,13,13,14,14,15,15,16,16,17,17,18,18,19,19,20,20,21,21,22,22,23,23,24,24,25,25,26,26,29,29,33,33,35,35,36,36,39,39,40,40,41,41,42,42,43,43,44,44,45,45,46,46,47,47,48,48,49,49,50,50,51,51,52,52,53,53,54,54],"right_children":[2,4,6,8,10,12,14,16,18,20,22,24,26,28,30,32,34,36,38,40,42,44,46,48,50,52,54,-1,-1,56,-1,-1,-1,58,-1,60,62,-1,-1,64,66,68,70,72,74,76,78,80,82,84,86,88,90,92,94,-1,-1,-1,-1,-1,-1,-1,-1,-1,-1,-1,-1,-1,-1,-1,-1,-1,-1,-1,-1,-1,-1,-1,-1,-1,-1,-1,-1,-1,-1,-1,-1,-1,-1,-1,-1,-1,-1,-1,-1],"split_conditions":[1.968843E-1,-6.3086504E-1,1.2028916E0,-9.656321E-1,-2.424267E-1,6.600191E-1,1.5689154E0,-1.139217E0,-7.9203755E-1,-4.4684097E-1,-5.6757454E-2,4.5952818E-1,9.138745E-1,1.3778347E0,1.7796558E0,-1.2049006E0,-1.0083604E0,-8.9619374E-1,-7.120355E-1,-5.3311247E-1,-3.5825297E-1,-1.3107671E-1,6.806975E-2,3.3145082E-1,5.6646466E-1,7.650788E-1,1.0308784E0,5.523525E1,6.319688E1,1.6975523E0,7.836907E1,-5.234434E1,-5.0290974E1,-9.343788E-1,-4.2012585E1,-9.3450856E-1,-8.4537E-1,-3.1751432E1,-2.8857822E1,-5.9167814E-1,-4.8837116E-1,-3.9786822E-1,-3.08729E-1,-1.7234945E-1,-9.1995575E-2,1.6269332E-2,1.4456338E-1,2.5036958E-1,3.71505E-1,5.118975E-1,6.1310387E-1,7.148837E-1,8.329374E-1,9.454128E-1,1.1133997E0,7.080288E1,7.4360374E1,-4.5846706E1,-4.392685E1,-4.0528606E1,-3.886387E1,-3.704195E1,-3.5204067E1,-2.6019566E1,-2.3832033E1,-2.1719902E1,-1.9725344E1,-1.8046461E1,-1.6077896E1,-1.3987613E1,-1.1908416E1,-8.283126E0,-6.5863E0,-4.641422E0,-2.8948143E0,-9.5053625E-1,1.8467871E0,4.73599E0,7.5099854E0,9.73011E0,1.2282569E1,1.5089213E1,1.8403458E1,2.0749533E1,2.3400064E1,2.5402405E1,2.7298695E1,2.943379E1,3.1675604E1,3.4273453E1,3.696079E1,3.9474617E1,4.2729507E1,4.5606194E1,4.95955E1],"split_indices":[5,5,5,5,5,5,5,6,5,5,5,5,5,5,5,5,5,5,5,5,5,5,5,5,5,5,5,0,0,5,0,0,0,4,0,5,5,0,0,5,5,5,5,5,5,5,5,5,5,5,5,5,5,5,5,0,0,0,0,0,0,0,0,0,0,0,0,0,0,0,0,0,0,0,0,0,0,0,0,0,0,0,0,0,0,0,0,0,0,0,0,0,0,0,0],"split_type":[0,0,0,0,0,0,0,0,0,0,0,0,0,0,0,0,0,0,0,0,0,0,0,0,0,0,0,0,0,0,0,0,0,0,0,0,0,0,0,0,0,0,0,0,0,0,0,0,0,0,0,0,0,0,0,0,0,0,0,0,0,0,0,0,0,0,0,0,0,0,0,0,0,0,0,0,0,0,0,0,0,0,0,0,0,0,0,0,0,0,0,0,0,0,0],"sum_hessian":[4.1872E4,2.5833E4,1.6039E4,1.6035E4,9.798E3,8.67E3,7.369E3,7.531E3,8.504E3,6.201E3,3.597E3,4.254E3,4.416E3,1.317E3,6.052E3,2.945E3,4.586E3,6.379E3,2.125E3,2.781E3,3.42E3,1.635E3,1.962E3,2.129E3,2.125E3,3.116E3,1.3E3,6.63E2,6.54E2,4.09E3,1.962E3,1.472E3,1.473E3,2.618E3,1.968E3,2.616E3,3.763E3,6.51E2,1.474E3,1.475E3,1.306E3,1.634E3,1.786E3,1.308E3,3.27E2,1.147E3,8.15E2,9.82E2,1.147E3,8.16E2,1.309E3,1.307E3,1.809E3,6.51E2,6.49E2,1.471E3,2.619E3,1.019E3,1.599E3,1.309E3,1.307E3,2.617E3,1.146E3,3.3E2,1.145E3,6.5E2,6.56E2,1.146E3,4.88E2,1.127E3,6.59E2,9.84E2,3.24E2,1.65E2,1.62E2,6.56E2,4.91E2,3.24E2,4.91E2,3.28E2,6.54E2,1.65E2,9.82E2,3.25E2,4.91E2,6.55E2,6.54E2,8.2E2,4.87E2,1.148E3,6.61E2,3.19E2,3.32E2,3.23E2,3.26E2],"tree_param":{"num_deleted":"0","num_feature":"7","num_nodes":"95","size_leaf_vector":"1"}},{"base_weights":[3.6611166E-2,-2.7064212E2,4.3599136E2,-3.679469E2,-1.11375824E2,2.5537628E2,6.484306E2,-4.276405E2,-3.2848187E2,-1.6722841E2,-1.506978E1,1.7621292E2,3.2611447E2,5.407212E2,6.7535754E2,-4.6188272E2,-3.976347E2,-3.46432E2,-2.7057657E2,-2.0197389E2,-1.3560667E2,-6.3507492E1,2.5306768E1,1.3456844E2,2.2126459E2,2.9654675E2,4.003627E2,5.047335E2,5.853468E1,6.6019904E2,7.0536145E2,-4.70253E1,-4.513172E1,-4.0911816E1,-3.8947918E1,-3.6599063E2,-3.3200815E2,-2.9889402E1,-2.6270187E2,-2.1908247E2,-1.8475182E2,-1.5570879E2,-1.1906214E2,-7.311694E1,-4.088392E1,2.2281861E0,5.7744152E1,1.0298942E2,1.6149146E2,1.9741586E2,2.3303824E2,2.6769308E2,3.1552E2,3.7090405E2,4.2929605E2,4.782841E1,5.2171688E1,6.428699E1,6.702596E1,6.950668E1,7.3464745E1,-3.7175224E1,-3.5778698E1,-3.421517E1,-3.2553375E1,-2.6627539E1,-2.4566425E1,-2.3425474E1,-2.145091E1,-1.9340246E1,-1.738262E1,-1.6104792E1,-1.4473396E1,-1.2332164E1,-9.959454E0,-8.278836E0,-6.9125886E0,-4.8120513E0,-2.6071126E0,-8.5562485E-1,1.6624823E0,4.263851E0,6.760511E0,8.760057E0,1.1056185E1,1.4482546E1,1.6800951E1,1.7583487E1,2.041945E1,2.2141367E1,2.3967009E1,2.578692E1,2.7707825E1,3.048412E1,3.3002777E1,3.553949E1,3.846939E1,4.105965E1,4.465112E1],"categories":[],"categories_nodes":[],"categories_segments":[],"categories_sizes":[],"default_left":[0,0,0,0,0,0,0,0,0,0,0,0,0,0,0,0,0,0,0,0,0,0,0,0,0,0,0,0,0,0,0,0,0,0,0,0,0,0,0,0,0,0,0,0,0,0,0,0,0,0,0,0,0,0,0,0,0,0,0,0,0,0,0,0,0,0,0,0,0,0,0,0,0,0,0,0,0,0,0,0,0,0,0,0,0,0,0,0,0,0,0,0,0,0,0,0,0,0,0],"id":6,"left_children":[1,3,5,7,9,11,13,15,17,19,21,23,25,27,29,31,33,35,37,39,41,43,45,47,49,51,53,55,-1,57,59,-1,-1,-1,-1,61,63,-1,65,67,69,71,73,75,77,79,81,83,85,87,89,91,93,95,97,-1,-1,-1,-1,-1,-1,-1,-1,-1,-1,-1,-1,-1,-1,-1,-1,-1,-1,-1,-1,-1,-1,-1,-1,-1,-1,-1,-1,-1,-1,-1,-1,-1,-1,-1,-1,-1,-1,-1,-1,-1,-1,-1,-1],"loss_changes":[4.941286E9,4.0031808E8,6.15285E8,3.7637376E7,5.2705744E7,4.849901E7,2.100992E7,6.370432E6,9.944896E6,6.786816E6,7.038387E6,7.651208E6,9.931552E6,2.079808E6,2.214144E6,5.0688E4,1.59808E5,1.957376E6,4.32128E5,8.29608E5,1.062344E6,3.526775E5,1.4693905E6,1.794296E6,5.05736E5,1.71008E6,9.49664E5,1.21504E5,0E0,2.54208E5,8.1216E4,0E0,0E0,0E0,0E0,1.44E4,1.6784E5,0E0,4.4168E4,5.2168E4,1.06076E5,6.248E4,1.359E5,3.85505E4,5.12705E4,1.7838025E5,1.186655E5,1.04864E5,1.00376E5,6.006E4,4.7928E4,4.9056E4,2.04896E5,2.72E3,2.5912E4,0E0,0E0,0E0,0E0,0E0,0E0,0E0,0E0,0E0,0E0,0E0,0E0,0E0,0E0,0E0,0E0,0E0,0E0,0E0,0E0,0E0,0E0,0E0,0E0,0E0,0E0,0E0,0E0,0E0,0E0,0E0,0E0,0E0,0E0,0E0,0E0,0E0,0E0,0E0,0E0,0E0,0E0,0E0,0E0],"parents":[2147483647,0,0,1,1,2,2,3,3,4,4,5,5,6,6,7,7,8,8,9,9,10,10,11,11,12,12,13,13,14,14,15,15,16,16,17,17,18,18,19,19,20,20,21,21,22,22,23,23,24,24,25,25,26,26,27,27,29,29,30,30,35,35,36,36,38,38,39,39,40,40,41,41,42,42,43,43,44,44,45,45,46,46,47,47,48,48,49,49,50,50,51,51,52,52,53,53,54,54],"right_children":[2,4,6,8,10,12,14,16,18,20,22,24,26,28,30,32,34,36,38,40,42,44,46,48,50,52,54,56,-1,58,60,-1,-1,-1,-1,62,64,-1,66,68,70,72,74,76,78,80,82,84,86,88,90,92,94,96,98,-1,-1,-1,-1,-1,-1,-1,-1,-1,-1,-1,-1,-1,-1,-1,-1,-1,-1,-1,-1,-1,-1,-1,-1,-1,-1,-1,-1,-1,-1,-1,-1,-1,-1,-1,-1,-1,-1,-1,-1,-1,-1,-1,-1],"split_conditions":[1.968843E-1,-6.3086504E-1,1.2028916E0,-9.904317E-1,-2.424267E-1,6.4745384E-1,1.6057835E0,-1.0796221E0,-8.105367E-1,-4.4112104E-1,-5.6757454E-2,4.5952818E-1,9.138745E-1,1.4279742E0,1.7796558E0,-1.1890754E0,-9.873077E-1,-9.1735446E-1,-7.404935E-1,-5.3311247E-1,-3.5825297E-1,-1.5825383E-1,6.806975E-2,3.3145082E-1,5.492753E-1,7.481857E-1,1.0308784E0,1.2887704E0,5.853468E1,1.7033578E0,1.8435963E0,-4.70253E1,-4.513172E1,-4.0911816E1,-3.8947918E1,-9.486315E-1,-8.7464195E-1,-2.9889402E1,-6.589539E-1,-5.9167814E-1,-4.7592565E-1,-3.9786822E-1,-2.8683305E-1,-2.0150699E-1,-9.1995575E-2,1.6269332E-2,1.4456338E-1,2.5036958E-1,4.028508E-1,4.5697007E-1,5.8915704E-1,6.9021773E-1,8.205089E-1,9.454128E-1,1.1133997E0,4.782841E1,5.2171688E1,6.428699E1,6.702596E1,6.950668E1,7.3464745E1,-3.7175224E1,-3.5778698E1,-3.421517E1,-3.2553375E1,-2.6627539E1,-2.4566425E1,-2.3425474E1,-2.145091E1,-1.9340246E1,-1.738262E1,-1.6104792E1,-1.4473396E1,-1.2332164E1,-9.959454E0,-8.278836E0,-6.9125886E0,-4.8120513E0,-2.6071126E0,-8.5562485E-1,1.6624823E0,4.263851E0,6.760511E0,8.760057E0,1.1056185E1,1.4482546E1,1.6800951E1,1.7583487E1,2.041945E1,2.2141367E1,2.3967009E1,2.578692E1,2.7707825E1,3.048412E1,3.3002777E1,3.553949E1,3.846939E1,4.105965E1,4.465112E1],"split_indices":[5,5,5,5,5,5,5,4,5,5,5,5,5,5,5,6,6,5,5,5,5,5,5,5,5,5,5,5,0,5,5,0,0,0,0,5,5,0,5,5,5,5,5,5,5,5,5,5,5,1,5,5,5,5,5,0,0,0,0,0,0,0,0,0,0,0,0,0,0,0,0,0,0,0,0,0,0,0,0,0,0,0,0,0,0,0,0,0,0,0,0,0,0,0,0,0,0,0,0],"split_type":[0,0,0,0,0,0,0,0,0,0,0,0,0,0,0,0,0,0,0,0,0,0,0,0,0,0,0,0,0,0,0,0,0,0,0,0,0,0,0,0,0,0,0,0,0,0,0,0,0,0,0,0,0,0,0,0,0,0,0,0,0,0,0,0,0,0,0,0,0,0,0,0,0,0,0,0,0,0,0,0,0,0,0,0,0,0,0,0,0,0,0,0,0,0,0,0,0,0,0],"sum_hessian":[4.1872E4,2.5833E4,1.6039E4,1.6035E4,9.798E3,8.67E3,7.369E3,6.378E3,9.657E3,6.201E3,3.597E3,4.093E3,4.577E3,1.478E3,5.891E3,2.972E3,3.406E3,7.368E3,2.289E3,2.952E3,3.249E3,1.635E3,1.962E3,2.129E3,1.964E3,3.277E3,1.3E3,8.25E2,6.53E2,3.929E3,1.962E3,1.634E3,1.338E3,1.394E3,2.012E3,3.117E3,4.251E3,4.9E2,1.799E3,1.475E3,1.477E3,1.463E3,1.786E3,1.146E3,4.89E2,1.147E3,8.15E2,9.82E2,1.147E3,6.55E2,1.309E3,1.306E3,1.971E3,6.51E2,6.49E2,3.34E2,4.91E2,1.467E3,2.462E3,1.47E3,4.92E2,1.805E3,1.312E3,1.636E3,2.615E3,1.475E3,3.24E2,3.3E2,1.145E3,8.15E2,6.62E2,9.75E2,4.88E2,1.461E3,3.25E2,3.29E2,8.17E2,3.27E2,1.62E2,6.56E2,4.91E2,3.24E2,4.91E2,3.28E2,6.54E2,3.29E2,8.18E2,1.63E2,4.92E2,4.88E2,8.21E2,6.52E2,6.54E2,1.148E3,8.23E2,3.19E2,3.32E2,3.23E2,3.26E2],"tree_param":{"num_deleted":"0","num_feature":"7","num_nodes":"99","size_leaf_vector":"1"}},{"base_weights":[4.0275544E-2,-2.4158649E2,3.9572006E2,-3.2998483E2,-9.537117E1,2.3286455E2,5.836463E2,-3.785684E2,-2.8948135E2,-1.4695717E2,-6.491761E0,1.696578E2,3.0108325E2,4.8675632E2,6.078684E2,-4.142485E2,-3.5239447E2,-3.0621292E2,-2.3649825E2,-1.7547696E2,-1.15344574E2,-4.3584557E1,3.80417E1,1.2788613E2,2.0841861E2,2.7561618E2,3.666633E2,4.5438126E2,5.2690163E1,5.933132E2,6.3327844E2,-4.2325302E1,-4.0396725E1,-3.6010963E1,-3.3981586E1,-3.203006E2,-2.927079E2,-2.4884052E1,-2.2862029E2,-1.9054012E2,-1.5678328E2,-1.3039151E2,-9.9908646E1,-6.149853E1,-1.8464901E1,1.5569278E1,6.06052E1,1.0054776E2,1.5124832E2,1.9107396E2,2.2124814E2,2.5425061E2,2.9257428E2,3.453857E1,3.941278E1,4.3059853E1,4.696513E1,5.709215E1,5.9936016E1,6.2432583E1,6.616061E1,-3.2750362E1,-3.1123941E1,-2.9745335E1,-2.8052687E1,-2.3289633E1,-2.1521597E1,-1.9794947E1,-1.814527E1,-1.6361477E1,-1.5099863E1,-1.3949595E1,-1.2283603E1,-1.0514144E1,-8.150437E0,-6.460485E0,-5.3452697E0,-3.0403001E0,-1.0468637E0,4.3254647E-1,2.3117409E0,5.312774E0,7.1624618E0,9.209989E0,1.1716271E1,1.4149897E1,1.5496816E1,1.7829506E1,1.9721972E1,2.1445866E1,2.3115053E1,2.4390131E1,2.6412062E1,2.847111E1,3.1036316E1],"categories":[],"categories_nodes":[],"categories_segments":[],"categories_sizes":[],"default_left":[0,0,0,0,0,0,0,0,0,0,0,0,0,0,0,0,0,0,0,0,0,0,0,0,0,0,0,0,0,0,0,0,0,0,0,0,0,0,0,0,0,0,0,0,0,0,0,0,0,0,0,0,0,0,0,0,0,0,0,0,0,0,0,0,0,0,0,0,0,0,0,0,0,0,0,0,0,0,0,0,0,0,0,0,0,0,0,0,0,0,0,0,0,0,0],"id":7,"left_children":[1,3,5,7,9,11,13,15,17,19,21,23,25,27,29,31,33,35,37,39,41,43,45,47,49,51,53,55,-1,57,59,-1,-1,-1,-1,61,63,-1,65,67,69,71,73,75,77,79,81,83,85,87,89,91,93,-1,-1,-1,-1,-1,-1,-1,-1,-1,-1,-1,-1,-1,-1,-1,-1,-1,-1,-1,-1,-1,-1,-1,-1,-1,-1,-1,-1,-1,-1,-1,-1,-1,-1,-1,-1,-1,-1,-1,-1,-1,-1],"loss_changes":[4.0034404E9,3.3599757E8,4.8574643E8,3.1772672E7,4.491764E7,3.663008E7,1.7000448E7,6.73024E6,7.76416E6,5.568688E6,5.94674E6,7.126544E6,6.72976E6,1.682848E6,1.80352E6,1.1696E5,2.90464E5,1.183872E6,1.49824E5,8.87248E5,6.7052E5,8.8265E5,8.2860125E5,1.344552E6,4.67304E5,9.94464E5,5.30672E5,9.7744E4,0E0,1.67168E5,1.27424E5,0E0,0E0,0E0,0E0,1.11872E5,1.15392E5,0E0,2.4968E4,8.5216E4,3.2952E4,8.5156E4,1.31749E5,2.5189E4,7.7863625E4,6.957808E4,6.343075E4,1.27325E5,1.9634E4,4.188E4,3.85E4,6.9696E4,1.40752E5,0E0,0E0,0E0,0E0,0E0,0E0,0E0,0E0,0E0,0E0,0E0,0E0,0E0,0E0,0E0,0E0,0E0,0E0,0E0,0E0,0E0,0E0,0E0,0E0,0E0,0E0,0E0,0E0,0E0,0E0,0E0,0E0,0E0,0E0,0E0,0E0,0E0,0E0,0E0,0E0,0E0,0E0],"parents":[2147483647,0,0,1,1,2,2,3,3,4,4,5,5,6,6,7,7,8,8,9,9,10,10,11,11,12,12,13,13,14,14,15,15,16,16,17,17,18,18,19,19,20,20,21,21,22,22,23,23,24,24,25,25,26,26,27,27,29,29,30,30,35,35,36,36,38,38,39,39,40,40,41,41,42,42,43,43,44,44,45,45,46,46,47,47,48,48,49,49,50,50,51,51,52,52],"right_children":[2,4,6,8,10,12,14,16,18,20,22,24,26,28,30,32,34,36,38,40,42,44,46,48,50,52,54,56,-1,58,60,-1,-1,-1,-1,62,64,-1,66,68,70,72,74,76,78,80,82,84,86,88,90,92,94,-1,-1,-1,-1,-1,-1,-1,-1,-1,-1,-1,-1,-1,-1,-1,-1,-1,-1,-1,-1,-1,-1,-1,-1,-1,-1,-1,-1,-1,-1,-1,-1,-1,-1,-1,-1,-1,-1,-1,-1,-1,-1],"split_conditions":[2.2154373E-1,-6.086836E-1,1.2028916E0,-9.6984464E-1,-2.1659519E-1,6.792794E-1,1.6057835E0,-1.0798317E0,-7.646851E-1,-4.227996E-1,-1.0502091E-2,4.830784E-1,9.2778176E-1,1.4279742E0,1.7724255E0,-1.1968468E0,-1.0043316E0,-8.842487E-1,-6.979393E-1,-5.026294E-1,-3.3001095E-1,-1.3107671E-1,1.0633698E-1,3.71505E-1,5.8915704E-1,7.8815824E-1,1.0738505E0,1.2887704E0,5.2690163E1,1.6781309E0,1.8507026E0,-4.2325302E1,-4.0396725E1,-3.6010963E1,-3.3981586E1,-9.265541E-1,-8.3796346E-1,-2.4884052E1,-6.4835244E-1,-5.5016154E-1,-4.5547193E-1,-3.8712403E-1,-2.6694575E-1,-1.7234945E-1,-5.6757454E-2,3.1906996E-2,1.8281554E-1,2.9692772E-1,4.191923E-1,5.3346574E-1,6.7563695E-1,7.301973E-1,8.6091626E-1,3.453857E1,3.941278E1,4.3059853E1,4.696513E1,5.709215E1,5.9936016E1,6.2432583E1,6.616061E1,-3.2750362E1,-3.1123941E1,-2.9745335E1,-2.8052687E1,-2.3289633E1,-2.1521597E1,-1.9794947E1,-1.814527E1,-1.6361477E1,-1.5099863E1,-1.3949595E1,-1.2283603E1,-1.0514144E1,-8.150437E0,-6.460485E0,-5.3452697E0,-3.0403001E0,-1.0468637E0,4.3254647E-1,2.3117409E0,5.312774E0,7.1624618E0,9.209989E0,1.1716271E1,1.4149897E1,1.5496816E1,1.7829506E1,1.9721972E1,2.1445866E1,2.3115053E1,2.4390131E1,2.6412062E1,2.847111E1,3.1036316E1],"split_indices":[5,5,5,5,5,5,5,5,5,5,5,5,5,5,5,5,5,5,5,5,5,5,5,5,5,5,5,5,0,5,6,0,0,0,0,5,5,0,5,5,5,5,5,5,5,5,5,5,5,5,0,5,5,0,0,0,0,0,0,0,0,0,0,0,0,0,0,0,0,0,0,0,0,0,0,0,0,0,0,0,0,0,0,0,0,0,0,0,0,0,0,0,0,0,0],"split_type":[0,0,0,0,0,0,0,0,0,0,0,0,0,0,0,0,0,0,0,0,0,0,0,0,0,0,0,0,0,0,0,0,0,0,0,0,0,0,0,0,0,0,0,0,0,0,0,0,0,0,0,0,0,0,0,0,0,0,0,0,0,0,0,0,0,0,0,0,0,0,0,0,0,0,0,0,0,0,0,0,0,0,0,0,0,0,0,0,0,0,0,0,0,0,0],"sum_hessian":[4.1872E4,2.5997E4,1.5875E4,1.6201E4,9.796E3,8.506E3,7.369E3,7.362E3,8.839E3,6.198E3,3.598E3,4.417E3,4.089E3,1.478E3,5.891E3,3.109E3,4.253E3,6.714E3,2.125E3,3.256E3,2.942E3,1.963E3,1.635E3,2.128E3,2.289E3,2.949E3,1.14E3,8.25E2,6.53E2,3.761E3,2.13E3,1.636E3,1.473E3,2.619E3,1.634E3,3.275E3,3.439E3,8.16E2,1.309E3,1.798E3,1.458E3,1.486E3,1.456E3,1.145E3,8.18E2,8.2E2,8.15E2,9.83E2,1.145E3,9.8E2,1.309E3,1.312E3,1.637E3,6.5E2,4.9E2,3.34E2,4.91E2,8.2E2,2.941E3,1.636E3,4.94E2,1.805E3,1.47E3,2.458E3,9.81E2,9.8E2,3.29E2,9.79E2,8.19E2,6.56E2,8.02E2,6.66E2,8.2E2,1.13E3,3.26E2,8.21E2,3.24E2,3.27E2,4.91E2,3.3E2,4.9E2,4.89E2,3.26E2,6.56E2,3.27E2,3.27E2,8.18E2,3.28E2,6.52E2,7.9E2,5.19E2,6.53E2,6.59E2,1.147E3,4.9E2],"tree_param":{"num_deleted":"0","num_feature":"7","num_nodes":"95","size_leaf_vector":"1"}},{"base_weights":[4.21269E-2,-2.1925902E2,3.5324823E2,-2.9808087E2,-9.024519E1,2.0081284E2,5.1849255E2,-3.475159E2,-2.667452E2,-1.3549529E2,-1.2220935E1,1.377262E2,2.5259312E2,4.0235815E2,5.4240643E2,-3.7428992E2,-3.228866E2,-2.818807E2,-2.2120537E2,-1.6227785E2,-1.085043E2,-4.821108E1,2.3636257E1,9.206863E1,1.6209024E2,2.3066096E2,2.9882037E2,3.6753807E1,4.2292168E1,5.174813E2,5.5959656E2,-3.8190487E1,-3.665472E1,-3.3258026E1,-3.1629856E1,-2.976617E2,-2.7025974E2,-2.4406963E1,-2.1276242E2,-1.7481102E2,-1.4495926E2,-1.2335538E2,-9.4968895E1,-5.7444225E1,-2.3345505E1,4.3878546E0,4.6912956E1,7.997271E1,1.1206594E2,1.403827E2,1.8092331E2,2.1134454E2,2.4784752E2,2.7927046E1,3.2268307E1,4.8886597E1,5.267466E1,5.506775E1,5.84192E1,-2.9164667E1,-3.0249964E1,-2.7801971E1,-2.6442999E1,-2.2000452E1,-2.065195E1,-1.8348206E1,-1.6741762E1,-1.5309293E1,-1.3990845E1,-1.2813446E1,-1.1361484E1,-9.972991E0,-8.376648E0,-6.725904E0,-5.408062E0,-3.399571E0,-1.7799749E0,-1.0020539E0,1.1828408E0,3.4605777E0,5.494735E0,6.3488007E0,8.437243E0,1.0548213E1,1.244746E1,1.3601928E1,1.5091422E1,1.7089386E1,1.867274E1,2.0453537E1,2.1954847E1,2.2995031E1,2.5151907E1],"categories":[],"categories_nodes":[],"categories_segments":[],"categories_sizes":[],"default_left":[0,0,0,0,0,0,0,0,0,0,0,0,0,0,0,0,0,0,0,0,0,0,0,0,0,0,0,0,0,0,0,0,0,0,0,0,0,0,0,0,0,0,0,0,0,0,0,0,0,0,0,0,0,0,0,0,0,0,0,0,0,0,0,0,0,0,0,0,0,0,0,0,0,0,0,0,0,0,0,0,0,0,0,0,0,0,0,0,0,0,0,0,0],"id":8,"left_children":[1,3,5,7,9,11,13,15,17,19,21,23,25,27,29,31,33,35,37,39,41,43,45,47,49,51,53,-1,-1,55,57,-1,-1,-1,-1,59,61,-1,63,65,67,69,71,73,75,77,79,81,83,85,87,89,91,-1,-1,-1,-1,-1,-1,-1,-1,-1,-1,-1,-1,-1,-1,-1,-1,-1,-1,-1,-1,-1,-1,-1,-1,-1,-1,-1,-1,-1,-1,-1,-1,-1,-1,-1,-1,-1,-1,-1,-1],"loss_changes":[3.2434975E9,2.6268186E8,4.039287E8,2.4748288E7,3.4594736E7,2.7225344E7,2.11552E7,3.979456E6,6.705536E6,4.465744E6,4.644378E6,4.172168E6,4.576608E6,7.88272E5,2.443648E6,3.5296E4,1.0208E5,1.2704E6,4.21792E5,6.4992E5,6.0982E5,4.1099775E5,8.07609E5,3.08392E5,9.77432E5,9.80752E5,5.96136E5,0E0,0E0,4.36288E5,5.03808E5,0E0,0E0,0E0,0E0,2.4E3,1.18848E5,0E0,3.5952E4,8.4676E4,3.248E4,5.392E4,7.8156E4,3.9577E4,2.8217844E4,1.0603848E5,7.878525E4,5.4189E4,2.7065E4,3.2044E4,4.4348E4,3.7324E4,5E4,0E0,0E0,0E0,0E0,0E0,0E0,0E0,0E0,0E0,0E0,0E0,0E0,0E0,0E0,0E0,0E0,0E0,0E0,0E0,0E0,0E0,0E0,0E0,0E0,0E0,0E0,0E0,0E0,0E0,0E0,0E0,0E0,0E0,0E0,0E0,0E0,0E0,0E0,0E0,0E0],"parents":[2147483647,0,0,1,1,2,2,3,3,4,4,5,5,6,6,7,7,8,8,9,9,10,10,11,11,12,12,13,13,14,14,15,15,16,16,17,17,18,18,19,19,20,20,21,21,22,22,23,23,24,24,25,25,26,26,29,29,30,30,35,35,36,36,38,38,39,39,40,40,41,41,42,42,43,43,44,44,45,45,46,46,47,47,48,48,49,49,50,50,51,51,52,52],"right_children":[2,4,6,8,10,12,14,16,18,20,22,24,26,28,30,32,34,36,38,40,42,44,46,48,50,52,54,-1,-1,56,58,-1,-1,-1,-1,60,62,-1,64,66,68,70,72,74,76,78,80,82,84,86,88,90,92,-1,-1,-1,-1,-1,-1,-1,-1,-1,-1,-1,-1,-1,-1,-1,-1,-1,-1,-1,-1,-1,-1,-1,-1,-1,-1,-1,-1,-1,-1,-1,-1,-1,-1,-1,-1,-1,-1,-1,-1],"split_conditions":[1.968843E-1,-6.3086504E-1,1.1133997E0,-9.939791E-1,-2.424267E-1,6.2522066E-1,1.4721881E0,-1.0796221E0,-8.226442E-1,-4.3598673E-1,-4.2213432E-2,4.028508E-1,8.4645456E-1,1.2467468E0,1.721074E0,-1.2199391E0,-9.2695016E-1,-9.2263025E-1,-7.404935E-1,-5.148236E-1,-3.4515485E-1,-1.3107671E-1,6.806975E-2,2.9692772E-1,5.118975E-1,7.301973E-1,9.454128E-1,3.6753807E1,4.2292168E1,1.6290834E0,1.8164343E0,-3.8190487E1,-3.665472E1,-3.3258026E1,-3.1629856E1,-9.6759E-1,-9.9291813E-1,-2.4406963E1,-6.9109976E-1,-5.64158E-1,-4.7592565E-1,-3.8712403E-1,-3.0117366E-1,-2.0150699E-1,-9.1995575E-2,1.6758847E-1,1.4456338E-1,3.1227925E-1,3.71505E-1,4.5952818E-1,5.6646466E-1,6.792794E-1,6.461755E-1,2.7927046E1,3.2268307E1,4.8886597E1,5.267466E1,5.506775E1,5.84192E1,-2.9164667E1,-3.0249964E1,-2.7801971E1,-2.6442999E1,-2.2000452E1,-2.065195E1,-1.8348206E1,-1.6741762E1,-1.5309293E1,-1.3990845E1,-1.2813446E1,-1.1361484E1,-9.972991E0,-8.376648E0,-6.725904E0,-5.408062E0,-3.399571E0,-1.7799749E0,-1.0020539E0,1.1828408E0,3.4605777E0,5.494735E0,6.3488007E0,8.437243E0,1.0548213E1,1.244746E1,1.3601928E1,1.5091422E1,1.7089386E1,1.867274E1,2.0453537E1,2.1954847E1,2.2995031E1,2.5151907E1],"split_indices":[5,5,5,5,5,5,5,4,5,5,5,5,5,5,5,6,4,5,5,5,5,5,5,5,5,5,5,0,0,5,5,0,0,0,0,6,4,0,5,5,5,5,5,5,5,1,5,1,5,5,5,5,0,0,0,0,0,0,0,0,0,0,0,0,0,0,0,0,0,0,0,0,0,0,0,0,0,0,0,0,0,0,0,0,0,0,0,0,0,0,0,0,0],"split_type":[0,0,0,0,0,0,0,0,0,0,0,0,0,0,0,0,0,0,0,0,0,0,0,0,0,0,0,0,0,0,0,0,0,0,0,0,0,0,0,0,0,0,0,0,0,0,0,0,0,0,0,0,0,0,0,0,0,0,0,0,0,0,0,0,0,0,0,0,0,0,0,0,0,0,0,0,0,0,0,0,0,0,0,0,0,0,0,0,0,0,0,0,0],"sum_hessian":[4.1872E4,2.5833E4,1.6039E4,1.6035E4,9.798E3,8.344E3,7.695E3,6.217E3,9.818E3,6.201E3,3.597E3,3.763E3,4.581E3,1.317E3,6.378E3,2.972E3,3.245E3,7.365E3,2.453E3,3.11E3,3.091E3,1.795E3,1.802E3,1.311E3,2.452E3,3.111E3,1.47E3,4.96E2,8.21E2,2.616E3,3.762E3,1.474E3,1.498E3,1.293E3,1.952E3,3.113E3,4.252E3,6.54E2,1.799E3,1.799E3,1.311E3,1.47E3,1.621E3,1.308E3,4.87E2,9.87E2,8.15E2,8.2E2,4.91E2,1.143E3,1.309E3,1.471E3,1.64E3,8.15E2,6.55E2,6.53E2,1.963E3,2.778E3,9.84E2,1.415E3,1.698E3,1.804E3,2.448E3,8.17E2,9.82E2,8.17E2,9.82E2,4.91E2,8.2E2,9.78E2,4.92E2,1.132E3,4.89E2,3.29E2,9.79E2,1.65E2,3.22E2,3.36E2,6.51E2,3.24E2,4.91E2,1.76E2,6.44E2,3.27E2,1.64E2,8.18E2,3.25E2,4.91E2,8.18E2,8.18E2,6.53E2,2.9E2,1.35E3],"tree_param":{"num_deleted":"0","num_feature":"7","num_nodes":"93","size_leaf_vector":"1"}},{"base_weights":[4.0587205E-2,-1.9572064E2,3.2061255E2,-2.6733667E2,-7.7264114E1,1.886783E2,4.7285733E2,-3.0437766E2,-2.3240805E2,-1.19055534E2,-5.2601547E0,1.3337805E2,2.3985435E2,3.8853366E2,4.911401E2,-3.3563568E2,-2.838521E2,-2.4631723E2,-1.91618E2,-1.410299E2,-9.208512E1,-3.818595E1,2.7741817E1,1.0364538E2,1.655571E2,2.1791682E2,2.9222903E2,3.6155144E1,4.1529346E2,4.7578033E2,5.0901672E2,-3.4305588E1,-3.2718876E1,-2.9177087E2,-2.7398764E1,-2.5712454E2,-2.3653325E2,-1.9686313E2,-1.7956432E1,-1.5432478E2,-1.2614222E2,-1.0313699E2,-7.948182E1,-4.9764763E1,-1.7930998E1,9.97579E0,4.9109787E1,8.15666E1,1.2251264E2,1.5473505E2,1.761887E2,2.0048293E2,2.334555E2,2.7020615E1,3.138701E2,3.971535E1,4.322744E1,4.5597786E1,4.8217663E1,5.026352E1,5.3763973E1,-2.9850843E1,-2.8637129E1,-2.635246E1,-2.5184334E1,-2.4000841E1,-2.2583202E1,-2.0325478E1,-1.9154093E1,-1.5939959E1,-1.4523961E1,-1.3265444E1,-1.2155402E1,-1.1017696E1,-9.702294E0,-8.394907E0,-6.5850673E0,-5.15319E0,-3.8791604E0,-3.221431E0,-1.3858851E0,9.5648654E-2,1.9011515E0,4.3006525E0,5.8105164E0,7.4752917E0,9.496607E0,1.1640929E1,1.269101E1,1.3306144E1,1.5760121E1,1.6499435E1,1.8036892E1,1.9475174E1,2.1141401E1,2.2795187E1,2.4567623E1,3.0059574E1,3.260628E1],"categories":[],"categories_nodes":[],"categories_segments":[],"categories_sizes":[],"default_left":[0,0,0,0,0,0,0,0,0,0,0,0,0,0,0,0,0,0,0,0,0,0,0,0,0,0,0,0,0,0,0,0,0,0,0,0,0,0,0,0,0,0,0,0,0,0,0,0,0,0,0,0,0,0,0,0,0,0,0,0,0,0,0,0,0,0,0,0,0,0,0,0,0,0,0,0,0,0,0,0,0,0,0,0,0,0,0,0,0,0,0,0,0,0,0,0,0,0,0],"id":9,"left_children":[1,3,5,7,9,11,13,15,17,19,21,23,25,27,29,31,33,35,37,39,41,43,45,47,49,51,53,-1,55,57,59,-1,-1,61,-1,63,65,67,-1,69,71,73,75,77,79,81,83,85,87,89,91,93,95,-1,97,-1,-1,-1,-1,-1,-1,-1,-1,-1,-1,-1,-1,-1,-1,-1,-1,-1,-1,-1,-1,-1,-1,-1,-1,-1,-1,-1,-1,-1,-1,-1,-1,-1,-1,-1,-1,-1,-1,-1,-1,-1,-1,-1,-1],"loss_changes":[2.6278262E9,2.2053043E8,3.188009E8,2.0891264E7,2.9479996E7,2.4043232E7,1.1171328E7,4.947584E6,4.68624E6,3.660904E6,3.911791E6,3.896984E6,5.011312E6,8.01504E5,1.419776E6,8.2688E4,2.91168E5,5.96672E5,9.9072E4,6.56264E5,3.79864E5,4.217275E5,6.820741E5,8.76876E5,1.98592E5,7.97584E5,5.35248E5,0E0,3.008E4,1.94496E5,2.3808E5,0E0,0E0,9.84E3,0E0,3.312E4,6.7616E4,1.1104E4,0E0,5.9792E4,3.2158E4,5.3055E4,7.3999E4,2.022325E4,3.7767125E4,8.009232E4,4.2300375E4,8.274E4,1.5986E4,3.9968E4,1.624E4,5.1296E4,5.4432E4,0E0,7.188E3,0E0,0E0,0E0,0E0,0E0,0E0,0E0,0E0,0E0,0E0,0E0,0E0,0E0,0E0,0E0,0E0,0E0,0E0,0E0,0E0,0E0,0E0,0E0,0E0,0E0,0E0,0E0,0E0,0E0,0E0,0E0,0E0,0E0,0E0,0E0,0E0,0E0,0E0,0E0,0E0,0E0,0E0,0E0,0E0],"parents":[2147483647,0,0,1,1,2,2,3,3,4,4,5,5,6,6,7,7,8,8,9,9,10,10,11,11,12,12,13,13,14,14,15,15,16,16,17,17,18,18,19,19,20,20,21,21,22,22,23,23,24,24,25,25,26,26,28,28,29,29,30,30,33,33,35,35,36,36,37,37,39,39,40,40,41,41,42,42,43,43,44,44,45,45,46,46,47,47,48,48,49,49,50,50,51,51,52,52,54,54],"right_children":[2,4,6,8,10,12,14,16,18,20,22,24,26,28,30,32,34,36,38,40,42,44,46,48,50,52,54,-1,56,58,60,-1,-1,62,-1,64,66,68,-1,70,72,74,76,78,80,82,84,86,88,90,92,94,96,-1,98,-1,-1,-1,-1,-1,-1,-1,-1,-1,-1,-1,-1,-1,-1,-1,-1,-1,-1,-1,-1,-1,-1,-1,-1,-1,-1,-1,-1,-1,-1,-1,-1,-1,-1,-1,-1,-1,-1,-1,-1,-1,-1,-1,-1],"split_conditions":[2.2154373E-1,-6.086836E-1,1.2028916E0,-9.566881E-1,-2.1659519E-1,6.600191E-1,1.5689154E0,-1.0798317E0,-7.646851E-1,-4.149215E-1,-2.8812971E-2,4.830784E-1,9.138745E-1,1.3778347E0,1.7501681E0,-1.1890754E0,-1.0043316E0,-8.8131285E-1,-6.7003137E-1,-5.026294E-1,-3.246441E-1,-1.3107671E-1,1.0633698E-1,3.71505E-1,5.8915704E-1,7.792841E-1,1.0308784E0,3.6155144E1,1.4721881E0,1.6693742E0,1.8435963E0,-3.4305588E1,-3.2718876E1,-1.0479981E0,-2.7398764E1,-9.265541E-1,-8.339873E-1,-7.045274E-1,-1.7956432E1,-5.4129976E-1,-4.5547193E-1,-3.7414774E-1,-2.6694575E-1,-1.5825383E-1,1.05784826E-1,3.1906996E-2,1.8281554E-1,2.9692772E-1,4.2884415E-1,4.5731208E-1,6.0166085E-1,7.301973E-1,8.4645456E-1,2.7020615E1,1.1133997E0,3.971535E1,4.322744E1,4.5597786E1,4.8217663E1,5.026352E1,5.3763973E1,-2.9850843E1,-2.8637129E1,-2.635246E1,-2.5184334E1,-2.4000841E1,-2.2583202E1,-2.0325478E1,-1.9154093E1,-1.5939959E1,-1.4523961E1,-1.3265444E1,-1.2155402E1,-1.1017696E1,-9.702294E0,-8.394907E0,-6.5850673E0,-5.15319E0,-3.8791604E0,-3.221431E0,-1.3858851E0,9.5648654E-2,1.9011515E0,4.3006525E0,5.8105164E0,7.4752917E0,9.496607E0,1.1640929E1,1.269101E1,1.3306144E1,1.5760121E1,1.6499435E1,1.8036892E1,1.9475174E1,2.1141401E1,2.2795187E1,2.4567623E1,3.0059574E1,3.260628E1],"split_indices":[5,5,5,5,5,5,5,5,5,5,5,5,5,5,5,6,5,5,5,5,5,5,5,5,5,5,5,0,5,5,5,0,0,5,0,5,5,5,0,5,5,5,5,5,1,5,5,5,5,0,1,5,5,0,5,0,0,0,0,0,0,0,0,0,0,0,0,0,0,0,0,0,0,0,0,0,0,0,0,0,0,0,0,0,0,0,0,0,0,0,0,0,0,0,0,0,0,0,0],"split_type":[0,0,0,0,0,0,0,0,0,0,0,0,0,0,0,0,0,0,0,0,0,0,0,0,0,0,0,0,0,0,0,0,0,0,0,0,0,0,0,0,0,0,0,0,0,0,0,0,0,0,0,0,0,0,0,0,0,0,0,0,0,0,0,0,0,0,0,0,0,0,0,0,0,0,0,0,0,0,0,0,0,0,0,0,0,0,0,0,0,0,0,0,0,0,0,0,0,0,0],"sum_hessian":[4.1872E4,2.5997E4,1.5875E4,1.6201E4,9.796E3,8.506E3,7.369E3,7.859E3,8.342E3,6.198E3,3.598E3,4.09E3,4.416E3,1.317E3,6.052E3,3.109E3,4.75E3,6.217E3,2.125E3,3.413E3,2.785E3,1.801E3,1.797E3,2.128E3,1.962E3,3.116E3,1.3E3,6.63E2,6.54E2,3.27E3,2.782E3,1.634E3,1.475E3,2.619E3,2.131E3,2.942E3,3.275E3,1.47E3,6.55E2,1.798E3,1.615E3,1.48E3,1.305E3,1.145E3,6.56E2,9.82E2,8.15E2,9.83E2,1.145E3,9.8E2,9.82E2,1.475E3,1.641E3,6.51E2,6.49E2,3.28E2,3.26E2,8.16E2,2.454E3,2.29E3,4.92E2,1.141E3,1.478E3,1.308E3,1.634E3,2.456E3,8.19E2,6.51E2,8.19E2,1.143E3,6.55E2,6.56E2,9.59E2,6.8E2,8E2,9.79E2,3.26E2,9.83E2,1.62E2,1.44E2,5.12E2,4.92E2,4.9E2,4.89E2,3.26E2,6.56E2,3.27E2,4.91E2,6.54E2,1.2E2,8.6E2,2.78E2,7.04E2,9.8E2,4.95E2,1.145E3,4.96E2,3.23E2,3.26E2],"tree_param":{"num_deleted":"0","num_feature":"7","num_nodes":"99","size_leaf_vector":"1"}},{"base_weights":[4.125576E-2,-1.7616403E2,2.8858905E2,-2.4062204E2,-6.954722E1,1.6984372E2,4.256146E2,-2.7204016E2,-2.0723444E2,-1.0716476E2,-4.734573E0,1.2546975E2,2.2158893E2,3.548718E2,4.4330008E2,-3.0345422E2,-2.5486647E2,-2.2008302E2,-1.7248325E2,-1.27997986E2,-8.407234E1,-3.184721E1,2.7816744E1,9.330023E1,1.5332771E2,2.0444853E2,2.72767E2,3.3114145E2,3.843005E1,4.341459E2,4.668091E2,-3.0945805E1,-2.9722355E1,-2.6598215E1,-2.475525E2,-2.2860307E2,-2.119423E2,-1.7635681E2,-1.5922533E1,-1.3890927E2,-1.14456245E2,-9.511584E1,-7.274376E1,-4.2762478E1,-9.91791E0,1.1488268E1,4.421118E1,6.999287E1,1.07789505E2,1.4100047E2,1.6398524E2,1.9014365E2,2.1861461E2,2.5708517E1,2.8792526E1,3.1226461E1,3.4332153E1,4.2209797E1,4.415255E1,4.602716E1,4.9161144E1,-2.5383774E1,-2.4404972E1,-2.33559E1,-2.2443197E1,-2.181927E1,-2.0707586E1,-1.8296051E1,-1.718066E1,-1.4563219E1,-1.3316767E1,-1.2104597E1,-1.1097829E1,-1.0027858E1,-8.831356E0,-7.6570497E0,-5.928572E0,-4.6383934E0,-3.1767728E0,-2.368685E0,-7.874987E-1,-2.0101185E0,1.3260051E0,3.5994484E0,4.9660125E0,6.1835356E0,7.531635E0,9.550298E0,1.1180861E1,1.3238868E1,1.4728625E1,1.4950025E1,1.6683529E1,1.8010832E1,1.9494768E1,2.1040564E1,2.2868475E1],"categories":[],"categories_nodes":[],"categories_segments":[],"categories_sizes":[],"default_left":[0,0,0,0,0,0,0,0,0,0,0,0,0,0,0,0,0,0,0,0,0,0,0,0,0,0,0,0,0,0,0,0,0,0,0,0,0,0,0,0,0,0,0,0,0,0,0,0,0,0,0,0,0,0,0,0,0,0,0,0,0,0,0,0,0,0,0,0,0,0,0,0,0,0,0,0,0,0,0,0,0,0,0,0,0,0,0,0,0,0,0,0,0,0,0,0,0],"id":10,"left_children":[1,3,5,7,9,11,13,15,17,19,21,23,25,27,29,31,33,35,37,39,41,43,45,47,49,51,53,55,-1,57,59,-1,-1,-1,61,63,65,67,-1,69,71,73,75,77,79,81,83,85,87,89,91,93,95,-1,-1,-1,-1,-1,-1,-1,-1,-1,-1,-1,-1,-1,-1,-1,-1,-1,-1,-1,-1,-1,-1,-1,-1,-1,-1,-1,-1,-1,-1,-1,-1,-1,-1,-1,-1,-1,-1,-1,-1,-1,-1,-1,-1],"loss_changes":[2.129027E9,1.7864954E8,2.5824832E8,1.6939136E7,2.388548E7,1.9505456E7,9.063552E6,4.424192E6,3.471136E6,2.971512E6,3.1771908E6,4.091976E6,3.388176E6,9.056E5,1.065216E6,1.8144E4,3.7328E5,3.49248E5,8.11E4,4.65348E5,3.61272E5,4.6968725E5,4.3744325E5,7.1143E5,2.9928E5,5.55216E5,1.59408E5,8.2704E4,0E0,1.92E5,3.9296E4,0E0,0E0,0E0,1.0096E4,5.232E3,4.4432E4,1.772E4,0E0,5.0052E4,2.0004E4,4.3364E4,7.04965E4,5.07265E4,1.8209754E4,4.621765E4,3.4746625E4,3.0909E4,5.4061E4,4.248E4,2.914E4,3.59E4,7.3648E4,0E0,0E0,0E0,0E0,0E0,0E0,0E0,0E0,0E0,0E0,0E0,0E0,0E0,0E0,0E0,0E0,0E0,0E0,0E0,0E0,0E0,0E0,0E0,0E0,0E0,0E0,0E0,0E0,0E0,0E0,0E0,0E0,0E0,0E0,0E0,0E0,0E0,0E0,0E0,0E0,0E0,0E0,0E0,0E0],"parents":[2147483647,0,0,1,1,2,2,3,3,4,4,5,5,6,6,7,7,8,8,9,9,10,10,11,11,12,12,13,13,14,14,15,15,16,16,17,17,18,18,19,19,20,20,21,21,22,22,23,23,24,24,25,25,26,26,27,27,29,29,30,30,34,34,35,35,36,36,37,37,39,39,40,40,41,41,42,42,43,43,44,44,45,45,46,46,47,47,48,48,49,49,50,50,51,51,52,52],"right_children":[2,4,6,8,10,12,14,16,18,20,22,24,26,28,30,32,34,36,38,40,42,44,46,48,50,52,54,56,-1,58,60,-1,-1,-1,62,64,66,68,-1,70,72,74,76,78,80,82,84,86,88,90,92,94,96,-1,-1,-1,-1,-1,-1,-1,-1,-1,-1,-1,-1,-1,-1,-1,-1,-1,-1,-1,-1,-1,-1,-1,-1,-1,-1,-1,-1,-1,-1,-1,-1,-1,-1,-1,-1,-1,-1,-1,-1,-1,-1,-1,-1],"split_conditions":[2.2154373E-1,-6.086836E-1,1.2028916E0,-9.4549245E-1,-2.1659519E-1,6.9021773E-1,1.6057835E0,-1.1506938E0,-7.646851E-1,-4.227996E-1,-1.0502091E-2,4.830784E-1,9.454128E-1,1.4279742E0,1.7906566E0,-1.2199391E0,-1.0195365E0,-8.7464195E-1,-6.589539E-1,-5.026294E-1,-3.3001095E-1,-9.1995575E-2,1.0633698E-1,3.3145082E-1,6.008865E-1,8.032377E-1,1.0738505E0,1.2887704E0,3.843005E1,1.7084881E0,1.8647144E0,-3.0945805E1,-2.9722355E1,-2.6598215E1,-9.939791E-1,-1.0299004E0,-9.6913654E-1,-7.045274E-1,-1.5922533E1,-5.5781704E-1,-4.6510524E-1,-3.7414774E-1,-2.6694575E-1,-1.5825383E-1,1.0604885E-1,-1.3254245E-1,1.6694957E-1,2.671813E-1,4.028508E-1,5.492753E-1,6.0166085E-1,7.301973E-1,8.6091626E-1,2.5708517E1,2.8792526E1,3.1226461E1,3.4332153E1,4.2209797E1,4.415255E1,4.602716E1,4.9161144E1,-2.5383774E1,-2.4404972E1,-2.33559E1,-2.2443197E1,-2.181927E1,-2.0707586E1,-1.8296051E1,-1.718066E1,-1.4563219E1,-1.3316767E1,-1.2104597E1,-1.1097829E1,-1.0027858E1,-8.831356E0,-7.6570497E0,-5.928572E0,-4.6383934E0,-3.1767728E0,-2.368685E0,-7.874987E-1,-2.0101185E0,1.3260051E0,3.5994484E0,4.9660125E0,6.1835356E0,7.531635E0,9.550298E0,1.1180861E1,1.3238868E1,1.4728625E1,1.4950025E1,1.6683529E1,1.8010832E1,1.9494768E1,2.1040564E1,2.2868475E1],"split_indices":[5,5,5,5,5,5,5,5,5,5,5,5,5,5,5,6,5,5,5,5,5,5,5,5,5,5,5,5,0,5,5,0,0,0,5,4,4,5,0,5,5,5,5,5,0,4,5,5,5,5,1,5,5,0,0,0,0,0,0,0,0,0,0,0,0,0,0,0,0,0,0,0,0,0,0,0,0,0,0,0,0,0,0,0,0,0,0,0,0,0,0,0,0,0,0,0,0],"split_type":[0,0,0,0,0,0,0,0,0,0,0,0,0,0,0,0,0,0,0,0,0,0,0,0,0,0,0,0,0,0,0,0,0,0,0,0,0,0,0,0,0,0,0,0,0,0,0,0,0,0,0,0,0,0,0,0,0,0,0,0,0,0,0,0,0,0,0,0,0,0,0,0,0,0,0,0,0,0,0,0,0,0,0,0,0,0,0,0,0,0,0,0,0,0,0,0,0],"sum_hessian":[4.1872E4,2.5997E4,1.5875E4,1.6201E4,9.796E3,8.506E3,7.369E3,8.343E3,7.858E3,6.198E3,3.598E3,4.581E3,3.925E3,1.478E3,5.891E3,2.943E3,5.4E3,5.733E3,2.125E3,3.256E3,2.942E3,1.963E3,1.635E3,2.128E3,2.453E3,2.944E3,9.81E2,8.25E2,6.53E2,4.254E3,1.637E3,1.474E3,1.469E3,2.129E3,3.271E3,2.788E3,2.945E3,1.635E3,4.9E2,1.798E3,1.458E3,1.486E3,1.456E3,1.31E3,6.53E2,8.2E2,8.15E2,8.18E2,1.31E3,1.144E3,1.309E3,1.472E3,1.472E3,4.91E2,4.9E2,3.34E2,4.91E2,1.638E3,2.616E3,1.311E3,3.26E2,1.145E3,2.126E3,1.249E3,1.539E3,1.27E3,1.675E3,6.51E2,9.84E2,8.17E2,9.81E2,4.92E2,9.66E2,8.37E2,6.49E2,1.13E3,3.26E2,9.83E2,3.27E2,8.3E1,5.7E2,4.3E1,7.77E2,3.28E2,4.87E2,3.28E2,4.9E2,3.29E2,9.81E2,4.92E2,6.52E2,2.24E2,1.085E3,4.89E2,9.83E2,8.23E2,6.49E2],"tree_param":{"num_deleted":"0","num_feature":"7","num_nodes":"97","size_leaf_vector":"1"}},{"base_weights":[4.077635E-2,-1.5988661E2,2.576196E2,-2.181438E2,-6.704621E1,1.464619E2,3.7811768E2,-2.5196292E2,-1.9439374E2,-1.0107952E2,-1.0906463E1,1.0041721E2,1.842545E2,2.9338138E2,3.9556625E2,-2.729502E2,-2.34343E2,-2.0470227E2,-1.6263634E2,-1.24060486E2,-8.424692E1,-3.9163776E1,1.4995633E1,6.3749485E1,1.1646389E2,1.6959462E2,2.2093712E2,2.675365E1,3.0865086E1,3.7496805E2,4.0694778E2,-2.7857822E1,-2.6727558E1,-2.4199736E1,-2.2901775E1,-2.1430655E2,-1.954575E2,-1.7761572E1,-1.5654341E2,-1.318919E2,-1.1390393E2,-9.5474335E1,-7.2820786E1,-4.4683914E1,-2.4325928E1,1.1610285E0,3.4440647E1,5.6161613E1,7.3752495E1,1.008627E2,1.3195235E2,1.5435342E2,1.8191641E2,2.0884558E2,2.4042896E1,3.591136E1,3.8354206E1,3.990619E1,4.2340164E1,-2.181529E1,-2.0787233E1,-2.0006786E1,-1.9127829E1,-1.614691E1,-1.5308496E1,-1.4021901E1,-1.2755978E1,-1.1646596E1,-1.0433233E1,-9.921366E0,-8.916234E0,-7.788144E0,-6.6868296E0,-5.6804485E0,-4.229196E0,-3.6021907E0,-2.0350573E0,-7.850222E-1,8.1262684E-1,2.5638072E0,4.018535E0,4.215954E0,6.0400977E0,6.6495867E0,8.146922E0,9.648013E0,1.0795858E1,1.2468622E1,1.3615623E1,1.4794481E1,1.5932414E1,1.739086E1,1.8837845E1,1.930656E1,2.1259584E1],"categories":[],"categories_nodes":[],"categories_segments":[],"categories_sizes":[],"default_left":[0,0,0,0,0,0,0,0,0,0,0,0,0,0,0,0,0,0,0,0,0,0,0,0,0,0,0,0,0,0,0,0,0,0,0,0,0,0,0,0,0,0,0,0,0,0,0,0,0,0,0,0,0,0,0,0,0,0,0,0,0,0,0,0,0,0,0,0,0,0,0,0,0,0,0,0,0,0,0,0,0,0,0,0,0,0,0,0,0,0,0,0,0,0,0],"id":11,"left_children":[1,3,5,7,9,11,13,15,17,19,21,23,25,27,29,31,33,35,37,39,41,43,45,47,49,51,53,-1,-1,55,57,-1,-1,-1,-1,59,61,-1,63,65,67,69,71,73,75,77,79,81,83,85,87,89,91,93,-1,-1,-1,-1,-1,-1,-1,-1,-1,-1,-1,-1,-1,-1,-1,-1,-1,-1,-1,-1,-1,-1,-1,-1,-1,-1,-1,-1,-1,-1,-1,-1,-1,-1,-1,-1,-1,-1,-1,-1,-1],"loss_changes":[1.7249537E9,1.3971162E8,2.1478906E8,1.2700288E7,1.9032512E7,1.4503024E7,1.126272E7,2.35632E6,3.0208E6,2.388664E6,2.7533525E6,2.2073E6,2.42656E6,4.3756E5,1.342912E6,2.0752E4,8.9888E4,5.83072E5,1.81296E5,1.93376E5,4.52698E5,1.462635E5,5.280346E5,8.2993E4,6.19052E5,5.8752E5,2.57356E5,0E0,0E0,1.7264E5,3.62624E5,0E0,0E0,0E0,0E0,3.9824E4,3.1056E4,0E0,3.168E3,3.525E4,1.6E4,3.3734E4,4.8412E4,3.5577E4,2.2049812E4,7.211861E4,4.0233375E4,3.6452875E4,2.213325E4,3.0262E4,2.3038E4,2.332E4,6.074E4,7.068E3,0E0,0E0,0E0,0E0,0E0,0E0,0E0,0E0,0E0,0E0,0E0,0E0,0E0,0E0,0E0,0E0,0E0,0E0,0E0,0E0,0E0,0E0,0E0,0E0,0E0,0E0,0E0,0E0,0E0,0E0,0E0,0E0,0E0,0E0,0E0,0E0,0E0,0E0,0E0,0E0,0E0],"parents":[2147483647,0,0,1,1,2,2,3,3,4,4,5,5,6,6,7,7,8,8,9,9,10,10,11,11,12,12,13,13,14,14,15,15,16,16,17,17,18,18,19,19,20,20,21,21,22,22,23,23,24,24,25,25,26,26,29,29,30,30,35,35,36,36,38,38,39,39,40,40,41,41,42,42,43,43,44,44,45,45,46,46,47,47,48,48,49,49,50,50,51,51,52,52,53,53],"right_children":[2,4,6,8,10,12,14,16,18,20,22,24,26,28,30,32,34,36,38,40,42,44,46,48,50,52,54,-1,-1,56,58,-1,-1,-1,-1,60,62,-1,64,66,68,70,72,74,76,78,80,82,84,86,88,90,92,94,-1,-1,-1,-1,-1,-1,-1,-1,-1,-1,-1,-1,-1,-1,-1,-1,-1,-1,-1,-1,-1,-1,-1,-1,-1,-1,-1,-1,-1,-1,-1,-1,-1,-1,-1,-1,-1,-1,-1,-1,-1],"split_conditions":[1.968843E-1,-6.4835244E-1,1.1133997E0,-9.870777E-1,-2.6694575E-1,6.2522066E-1,1.4721881E0,-1.0690137E0,-8.226442E-1,-4.6510524E-1,-5.6757454E-2,3.71505E-1,8.6091626E-1,1.2467468E0,1.7130111E0,-1.2049006E0,-9.226283E-1,-9.0046805E-1,-7.404935E-1,-5.4129976E-1,-3.7414774E-1,-1.5825383E-1,6.806975E-2,2.810128E-1,5.118975E-1,7.301973E-1,9.830823E-1,2.675365E1,3.0865086E1,1.6469985E0,1.8033922E0,-2.7857822E1,-2.6727558E1,-2.4199736E1,-2.2901775E1,-9.383958E-1,-9.829445E-1,-1.7761572E1,-6.979393E-1,-5.9167814E-1,-3.597956E-1,-4.149215E-1,-3.2001716E-1,-9.058126E-2,2.2897668E-2,1.6647887E-1,1.4456338E-1,3.1227925E-1,4.5731208E-1,4.471559E-1,5.6646466E-1,6.701908E-1,7.950859E-1,7.467579E-1,2.4042896E1,3.591136E1,3.8354206E1,3.990619E1,4.2340164E1,-2.181529E1,-2.0787233E1,-2.0006786E1,-1.9127829E1,-1.614691E1,-1.5308496E1,-1.4021901E1,-1.2755978E1,-1.1646596E1,-1.0433233E1,-9.921366E0,-8.916234E0,-7.788144E0,-6.6868296E0,-5.6804485E0,-4.229196E0,-3.6021907E0,-2.0350573E0,-7.850222E-1,8.1262684E-1,2.5638072E0,4.018535E0,4.215954E0,6.0400977E0,6.6495867E0,8.146922E0,9.648013E0,1.0795858E1,1.2468622E1,1.3615623E1,1.4794481E1,1.5932414E1,1.739086E1,1.8837845E1,1.930656E1,2.1259584E1],"split_indices":[5,5,5,5,5,5,5,4,5,5,5,5,5,5,5,5,4,5,5,5,5,5,5,5,5,5,5,0,0,5,5,0,0,0,0,5,4,0,5,5,4,5,5,1,1,2,5,1,0,5,5,5,5,0,0,0,0,0,0,0,0,0,0,0,0,0,0,0,0,0,0,0,0,0,0,0,0,0,0,0,0,0,0,0,0,0,0,0,0,0,0,0,0,0,0],"split_type":[0,0,0,0,0,0,0,0,0,0,0,0,0,0,0,0,0,0,0,0,0,0,0,0,0,0,0,0,0,0,0,0,0,0,0,0,0,0,0,0,0,0,0,0,0,0,0,0,0,0,0,0,0,0,0,0,0,0,0,0,0,0,0,0,0,0,0,0,0,0,0,0,0,0,0,0,0,0,0,0,0,0,0,0,0,0,0,0,0,0,0,0,0,0,0],"sum_hessian":[4.1872E4,2.5833E4,1.6039E4,1.5872E4,9.961E3,8.344E3,7.695E3,6.544E3,9.328E3,6.201E3,3.76E3,3.763E3,4.581E3,1.317E3,6.378E3,2.98E3,3.564E3,7.038E3,2.29E3,2.619E3,3.582E3,1.798E3,1.962E3,1.147E3,2.616E3,3.277E3,1.304E3,4.96E2,8.21E2,2.282E3,4.096E3,1.472E3,1.508E3,1.444E3,2.12E3,3.441E3,3.597E3,6.54E2,1.636E3,1.472E3,1.147E3,1.803E3,1.779E3,1.309E3,4.89E2,1.147E3,8.15E2,6.56E2,4.91E2,1.307E3,1.309E3,1.471E3,1.806E3,8.12E2,4.92E2,8.16E2,1.466E3,2.786E3,1.31E3,2.133E3,1.308E3,1.688E3,1.909E3,6.56E2,9.8E2,4.93E2,9.79E2,8.96E2,2.51E2,1.123E3,6.8E2,9.55E2,8.24E2,2.12E2,1.097E3,1.22E2,3.67E2,5E2,6.47E2,3.24E2,4.91E2,1.55E2,5.01E2,2.58E2,2.33E2,8.17E2,4.9E2,4.91E2,8.18E2,6.56E2,8.15E2,8.19E2,9.87E2,1.66E2,6.46E2],"tree_param":{"num_deleted":"0","num_feature":"7","num_nodes":"95","size_leaf_vector":"1"}},{"base_weights":[3.8928986E-2,-1.4391049E2,2.3188365E2,-1.9634409E2,-6.035073E1,1.3385434E2,3.4257016E2,-2.2885374E2,-1.7628734E2,-9.098481E1,-9.818185E0,9.2037125E1,1.6969843E2,2.7333017E2,3.5718277E2,-2.4574577E2,-2.1247955E2,-1.853577E2,-1.4639421E2,-1.1060075E2,-7.4985466E1,-3.3228737E1,1.5623349E1,6.3096275E1,1.0938772E2,1.5513368E2,2.0601398E2,2.5392795E2,2.9255207E1,3.4405597E2,3.701527E2,-2.5024092E1,-2.400734E1,-2.2046041E1,-2.0879086E1,-1.9521141E2,-1.7701093E2,-1.5784511E2,-1.3992803E1,-1.187209E2,-1.0139985E2,-8.433927E1,-6.459482E1,-3.903707E1,-1.5640416E1,2.903974E0,3.1004622E1,5.251082E1,7.626813E1,9.335382E1,1.19977455E2,1.4388861E2,1.6879434E2,1.9010191E1,2.2153925E1,2.4271982E1,2.6450247E1,3.30154E1,3.503148E1,3.6459385E1,3.9034718E1,-1.9064278E1,-1.9887571E1,-1.818756E1,-1.7301138E1,-1.6221718E1,-1.494861E1,-1.24729595E1,-1.1379716E1,-1.1166938E1,-9.922864E0,-8.786541E0,-7.795675E0,-6.835102E0,-5.8947926E0,-4.633702E0,-3.5324922E0,-2.4557407E0,-1.2367857E0,-7.2192407E-1,8.1319183E-1,2.3082118E0,3.6174965E0,4.0334377E0,5.577085E0,6.0862236E0,7.9609895E0,9.094716E0,1.0308612E1,1.138539E1,1.2478331E1,1.3630127E1,1.5004348E1,1.5832387E1,1.7142885E1],"categories":[],"categories_nodes":[],"categories_segments":[],"categories_sizes":[],"default_left":[0,0,0,0,0,0,0,0,0,0,0,0,0,0,0,0,0,0,0,0,0,0,0,0,0,0,0,0,0,0,0,0,0,0,0,0,0,0,0,0,0,0,0,0,0,0,0,0,0,0,0,0,0,0,0,0,0,0,0,0,0,0,0,0,0,0,0,0,0,0,0,0,0,0,0,0,0,0,0,0,0,0,0,0,0,0,0,0,0,0,0,0,0,0,0],"id":12,"left_children":[1,3,5,7,9,11,13,15,17,19,21,23,25,27,29,31,33,35,37,39,41,43,45,47,49,51,53,55,-1,57,59,-1,-1,-1,-1,61,63,65,-1,67,69,71,73,75,77,79,81,83,85,87,89,91,93,-1,-1,-1,-1,-1,-1,-1,-1,-1,-1,-1,-1,-1,-1,-1,-1,-1,-1,-1,-1,-1,-1,-1,-1,-1,-1,-1,-1,-1,-1,-1,-1,-1,-1,-1,-1,-1,-1,-1,-1,-1,-1],"loss_changes":[1.3974993E9,1.1317571E8,1.7399654E8,1.0309376E7,1.542046E7,1.2737024E7,7.524096E6,1.622016E6,2.635744E6,1.93816E6,2.240572E6,1.96601E6,2.390528E6,4.16888E5,9.31136E5,1.5712E4,4.4672E4,5.84848E5,1.47552E5,1.95964E5,3.26852E5,1.995185E5,3.5264925E5,2.01655E5,4.05644E5,4.78496E5,2.81012E5,1.438E4,0E0,1.544E5,2.07232E5,0E0,0E0,0E0,0E0,1.9744E4,4.8072E4,5.682E3,0E0,2.9384E4,1.8174E4,3.3571E4,3.0418E4,3.8252E4,1.3936789E4,5.2347227E4,3.259E4,3.03405E4,2.887575E4,1.3603E4,2.92E4,6.37E4,1.3464E4,0E0,0E0,0E0,0E0,0E0,0E0,0E0,0E0,0E0,0E0,0E0,0E0,0E0,0E0,0E0,0E0,0E0,0E0,0E0,0E0,0E0,0E0,0E0,0E0,0E0,0E0,0E0,0E0,0E0,0E0,0E0,0E0,0E0,0E0,0E0,0E0,0E0,0E0,0E0,0E0,0E0,0E0],"parents":[2147483647,0,0,1,1,2,2,3,3,4,4,5,5,6,6,7,7,8,8,9,9,10,10,11,11,12,12,13,13,14,14,15,15,16,16,17,17,18,18,19,19,20,20,21,21,22,22,23,23,24,24,25,25,26,26,27,27,29,29,30,30,35,35,36,36,37,37,39,39,40,40,41,41,42,42,43,43,44,44,45,45,46,46,47,47,48,48,49,49,50,50,51,51,52,52],"right_children":[2,4,6,8,10,12,14,16,18,20,22,24,26,28,30,32,34,36,38,40,42,44,46,48,50,52,54,56,-1,58,60,-1,-1,-1,-1,62,64,66,-1,68,70,72,74,76,78,80,82,84,86,88,90,92,94,-1,-1,-1,-1,-1,-1,-1,-1,-1,-1,-1,-1,-1,-1,-1,-1,-1,-1,-1,-1,-1,-1,-1,-1,-1,-1,-1,-1,-1,-1,-1,-1,-1,-1,-1,-1,-1,-1,-1,-1,-1,-1],"split_conditions":[1.968843E-1,-6.4835244E-1,1.1570019E0,-9.975764E-1,-2.6694575E-1,6.3593787E-1,1.521703E0,-1.0796221E0,-8.226442E-1,-4.5547193E-1,-4.2213432E-2,4.191923E-1,8.863756E-1,1.3333858E0,1.7407825E0,-1.1890754E0,-1.0563703E0,-9.1735446E-1,-7.2362316E-1,-5.4129976E-1,-3.5825297E-1,-1.3107671E-1,6.806975E-2,2.9692772E-1,5.118975E-1,7.792841E-1,9.830823E-1,1.2467468E0,2.9255207E1,1.6693742E0,1.8285968E0,-2.5024092E1,-2.400734E1,-2.2046041E1,-2.0879086E1,-1.0146899E0,-9.89496E-1,-6.540566E-1,-1.3992803E1,-5.8055836E-1,-4.7728792E-1,-4.0583834E-1,-3.146082E-1,-2.0150699E-1,1.05784826E-1,1.6758847E-1,1.4456338E-1,3.1227925E-1,-6.540566E-1,6.0166085E-1,5.7877046E-1,6.9021773E-1,6.7563695E-1,1.9010191E1,2.2153925E1,2.4271982E1,2.6450247E1,3.30154E1,3.503148E1,3.6459385E1,3.9034718E1,-1.9064278E1,-1.9887571E1,-1.818756E1,-1.7301138E1,-1.6221718E1,-1.494861E1,-1.24729595E1,-1.1379716E1,-1.1166938E1,-9.922864E0,-8.786541E0,-7.795675E0,-6.835102E0,-5.8947926E0,-4.633702E0,-3.5324922E0,-2.4557407E0,-1.2367857E0,-7.2192407E-1,8.1319183E-1,2.3082118E0,3.6174965E0,4.0334377E0,5.577085E0,6.0862236E0,7.9609895E0,9.094716E0,1.0308612E1,1.138539E1,1.2478331E1,1.3630127E1,1.5004348E1,1.5832387E1,1.7142885E1],"split_indices":[5,5,5,5,5,5,5,4,5,5,5,5,5,5,5,6,5,5,5,5,5,5,5,5,5,5,5,5,0,5,6,0,0,0,0,4,4,0,0,5,0,5,5,5,1,1,5,1,0,1,5,5,0,0,0,0,0,0,0,0,0,0,0,0,0,0,0,0,0,0,0,0,0,0,0,0,0,0,0,0,0,0,0,0,0,0,0,0,0,0,0,0,0,0,0],"split_type":[0,0,0,0,0,0,0,0,0,0,0,0,0,0,0,0,0,0,0,0,0,0,0,0,0,0,0,0,0,0,0,0,0,0,0,0,0,0,0,0,0,0,0,0,0,0,0,0,0,0,0,0,0,0,0,0,0,0,0,0,0,0,0,0,0,0,0,0,0,0,0,0,0,0,0,0,0,0,0,0,0,0,0,0,0,0,0,0,0,0,0,0,0,0,0],"sum_hessian":[4.1872E4,2.5833E4,1.6039E4,1.5872E4,9.961E3,8.507E3,7.532E3,6.052E3,9.82E3,6.201E3,3.76E3,3.928E3,4.579E3,1.316E3,6.216E3,2.972E3,3.08E3,7.53E3,2.29E3,2.783E3,3.418E3,1.958E3,1.802E3,1.474E3,2.454E3,3.272E3,1.307E3,6.62E2,6.54E2,3.103E3,3.113E3,1.634E3,1.338E3,9.55E2,2.125E3,3.443E3,4.087E3,8.18E2,1.472E3,1.472E3,1.311E3,1.795E3,1.623E3,1.471E3,4.87E2,9.87E2,8.15E2,8.2E2,6.54E2,9.8E2,1.474E3,1.801E3,1.471E3,6.52E2,6.55E2,3.33E2,3.29E2,9.8E2,2.123E3,2.456E3,6.57E2,1.556E3,1.887E3,1.824E3,2.263E3,5.25E2,2.93E2,6.52E2,8.2E2,2.2E2,1.091E3,1.148E3,6.47E2,9.68E2,6.55E2,4.92E2,9.79E2,1.29E2,3.58E2,3.36E2,6.51E2,3.24E2,4.91E2,1.76E2,6.44E2,1.2E2,5.34E2,7.94E2,1.86E2,6.59E2,8.15E2,8.17E2,9.84E2,3.08E2,1.163E3],"tree_param":{"num_deleted":"0","num_feature":"7","num_nodes":"95","size_leaf_vector":"1"}},{"base_weights":[3.7451226E-2,-1.27396164E2,2.1222675E2,-1.7483385E2,-4.8137962E1,1.2550178E2,3.1037247E2,-1.9839629E2,-1.5030688E2,-7.7232315E1,-1.4644076E0,9.337235E1,1.6162566E2,2.5855682E2,3.2332648E2,-2.1954027E2,-1.8472653E2,-1.604572E2,-1.24825554E2,-9.233613E1,-6.133245E1,-2.1516928E1,2.464769E1,7.1869545E1,1.1328645E2,1.4765889E2,1.955869E2,2.3642116E2,2.762523E2,3.1600424E2,3.3979684E2,-2.243584E1,-2.1213787E1,-1.9043912E2,-1.7855959E1,-1.6709923E1,-1.5480334E2,-1.2928822E2,-1.1666773E2,-1.0026219E2,-8.339065E1,-6.860139E1,-5.21687E1,-3.1180134E1,-6.0224457E0,1.33800335E1,3.5830322E1,5.5798557E1,8.188968E1,1.0567711E2,1.2080358E2,1.385473E2,1.5776064E2,1.8397394E2,2.1058578E1,2.2037848E1,2.4149582E1,2.6132605E1,2.8574919E1,3.0702406E1,3.2090405E1,3.347554E1,3.6148266E1,-1.9540194E1,-1.8758154E1,-1.5981467E1,-1.5125953E1,-1.3345649E1,-1.2581629E1,-1.2451611E1,-1.1187606E1,-1.0376546E1,-9.592729E0,-8.791487E0,-8.099786E0,-7.91614E0,-6.631849E0,-5.599111E0,-4.5667887E0,-3.4617264E0,-2.535054E0,-7.2936857E-1,1.1768837E0,8.554512E-1,2.1521745E0,3.4623864E0,5.410698E0,5.162452E0,6.190222E0,7.827195E0,8.775E0,9.005953E0,1.0693766E1,1.0784138E1,1.2273719E1,1.3268715E1,1.4306483E1,1.5365082E1,1.6433645E1,1.755428E1,1.9026062E1],"categories":[],"categories_nodes":[],"categories_segments":[],"categories_sizes":[],"default_left":[0,0,0,0,0,0,0,0,0,0,0,0,0,0,0,0,0,0,0,0,0,0,0,0,0,0,0,0,0,0,0,0,0,0,0,0,0,0,0,0,0,0,0,0,0,0,0,0,0,0,0,0,0,0,0,0,0,0,0,0,0,0,0,0,0,0,0,0,0,0,0,0,0,0,0,0,0,0,0,0,0,0,0,0,0,0,0,0,0,0,0,0,0,0,0,0,0,0,0,0,0],"id":13,"left_children":[1,3,5,7,9,11,13,15,17,19,21,23,25,27,29,31,33,35,37,39,41,43,45,47,49,51,53,55,57,59,61,-1,-1,63,-1,-1,65,67,69,71,73,75,77,79,81,83,85,87,89,91,93,95,97,99,-1,-1,-1,-1,-1,-1,-1,-1,-1,-1,-1,-1,-1,-1,-1,-1,-1,-1,-1,-1,-1,-1,-1,-1,-1,-1,-1,-1,-1,-1,-1,-1,-1,-1,-1,-1,-1,-1,-1,-1,-1,-1,-1,-1,-1,-1,-1],"loss_changes":[1.1322751E9,9.835616E7,1.3369658E8,9.428352E6,1.3303596E7,9.66812E6,4.863296E6,2.371104E6,2.055056E6,1.443632E6,1.9708872E6,1.883684E6,1.833336E6,5.14016E5,6.032E5,6.9072E4,1.44768E5,1.89472E5,6.8284E4,2.10942E5,1.92457E5,3.1857962E5,2.0553394E5,3.3795E5,1.18336E5,2.34576E5,1.6E5,8.36E2,4.0992E4,8.1536E4,7.5792E4,0E0,0E0,4.88E2,0E0,0E0,3.1072E4,4.498E3,1.6907E4,1.4876E4,8.674E3,3.42385E4,2.98955E4,2.5391125E4,1.8609145E4,3.187489E4,1.620775E4,1.769525E4,2.0862E4,1.295E4,1.5488E4,2.0012E4,1.026E4,1.106E3,0E0,0E0,0E0,0E0,0E0,0E0,0E0,0E0,0E0,0E0,0E0,0E0,0E0,0E0,0E0,0E0,0E0,0E0,0E0,0E0,0E0,0E0,0E0,0E0,0E0,0E0,0E0,0E0,0E0,0E0,0E0,0E0,0E0,0E0,0E0,0E0,0E0,0E0,0E0,0E0,0E0,0E0,0E0,0E0,0E0,0E0,0E0],"parents":[2147483647,0,0,1,1,2,2,3,3,4,4,5,5,6,6,7,7,8,8,9,9,10,10,11,11,12,12,13,13,14,14,15,15,16,16,17,17,18,18,19,19,20,20,21,21,22,22,23,23,24,24,25,25,26,26,27,27,28,28,29,29,30,30,33,33,36,36,37,37,38,38,39,39,40,40,41,41,42,42,43,43,44,44,45,45,46,46,47,47,48,48,49,49,50,50,51,51,52,52,53,53],"right_children":[2,4,6,8,10,12,14,16,18,20,22,24,26,28,30,32,34,36,38,40,42,44,46,48,50,52,54,56,58,60,62,-1,-1,64,-1,-1,66,68,70,72,74,76,78,80,82,84,86,88,90,92,94,96,98,100,-1,-1,-1,-1,-1,-1,-1,-1,-1,-1,-1,-1,-1,-1,-1,-1,-1,-1,-1,-1,-1,-1,-1,-1,-1,-1,-1,-1,-1,-1,-1,-1,-1,-1,-1,-1,-1,-1,-1,-1,-1,-1,-1,-1,-1,-1,-1],"split_conditions":[2.5036958E-1,-5.9167814E-1,1.2028916E0,-9.4549245E-1,-2.1659519E-1,6.9021773E-1,1.6057835E0,-1.0733367E0,-7.646851E-1,-4.227996E-1,1.6269332E-2,5.118975E-1,9.2778176E-1,1.3778347E0,1.7847795E0,-1.1882824E0,-1.0006543E0,-8.78295E-1,-6.7003137E-1,-5.026294E-1,-3.246441E-1,-9.1995575E-2,1.4456338E-1,3.71505E-1,6.1310387E-1,8.032377E-1,1.0738505E0,1.2467468E0,1.4721881E0,1.7033578E0,1.8647144E0,-2.243584E1,-2.1213787E1,-9.9162495E-1,-1.7855959E1,-1.6709923E1,-9.729816E-1,-7.045274E-1,-7.0047134E-1,-4.111747E-1,-4.6510524E-1,-4.110255E-1,-2.8683305E-1,-1.7234945E-1,1.4638868E-1,3.1258914E-1,3.72503E-1,2.9692772E-1,4.471559E-1,4.5731208E-1,6.0166085E-1,7.481857E-1,8.6091626E-1,8.9148086E-1,2.1058578E1,2.2037848E1,2.4149582E1,2.6132605E1,2.8574919E1,3.0702406E1,3.2090405E1,3.347554E1,3.6148266E1,-1.9540194E1,-1.8758154E1,-1.5981467E1,-1.5125953E1,-1.3345649E1,-1.2581629E1,-1.2451611E1,-1.1187606E1,-1.0376546E1,-9.592729E0,-8.791487E0,-8.099786E0,-7.91614E0,-6.631849E0,-5.599111E0,-4.5667887E0,-3.4617264E0,-2.535054E0,-7.2936857E-1,1.1768837E0,8.554512E-1,2.1521745E0,3.4623864E0,5.410698E0,5.162452E0,6.190222E0,7.827195E0,8.775E0,9.005953E0,1.0693766E1,1.0784138E1,1.2273719E1,1.3268715E1,1.4306483E1,1.5365082E1,1.6433645E1,1.755428E1,1.9026062E1],"split_indices":[5,5,5,5,5,5,5,5,5,5,5,5,5,5,5,5,5,5,5,5,5,5,5,5,5,5,5,5,5,5,5,0,0,6,0,0,4,5,0,1,5,0,5,5,4,0,4,5,5,0,1,5,5,0,0,0,0,0,0,0,0,0,0,0,0,0,0,0,0,0,0,0,0,0,0,0,0,0,0,0,0,0,0,0,0,0,0,0,0,0,0,0,0,0,0,0,0,0,0,0,0],"split_type":[0,0,0,0,0,0,0,0,0,0,0,0,0,0,0,0,0,0,0,0,0,0,0,0,0,0,0,0,0,0,0,0,0,0,0,0,0,0,0,0,0,0,0,0,0,0,0,0,0,0,0,0,0,0,0,0,0,0,0,0,0,0,0,0,0,0,0,0,0,0,0,0,0,0,0,0,0,0,0,0,0,0,0,0,0,0,0,0,0,0,0,0,0,0,0,0,0,0,0,0,0],"sum_hessian":[4.1872E4,2.6161E4,1.5711E4,1.6365E4,9.796E3,8.342E3,7.369E3,8.343E3,8.022E3,6.034E3,3.762E3,4.417E3,3.925E3,1.478E3,5.891E3,3.27E3,5.073E3,5.733E3,2.289E3,3.092E3,2.942E3,2.128E3,1.634E3,2.126E3,2.291E3,2.785E3,1.14E3,6.63E2,8.15E2,4.092E3,1.799E3,1.963E3,1.307E3,2.618E3,2.455E3,2.623E3,3.11E3,1.47E3,8.19E2,1.634E3,1.458E3,1.637E3,1.305E3,1.31E3,8.18E2,8.15E2,8.19E2,8.19E2,1.307E3,1.146E3,1.145E3,1.472E3,1.313E3,6.5E2,4.9E2,1.7E2,4.93E2,3.28E2,4.87E2,1.467E3,2.625E3,1.473E3,3.26E2,9.32E2,1.686E3,1.27E3,1.84E3,6.51E2,8.19E2,3.01E2,5.18E2,8.91E2,7.43E2,4.92E2,9.66E2,2.85E2,1.352E3,8.17E2,4.88E2,8.21E2,4.89E2,7.64E2,5.4E1,5.13E2,3.02E2,7.71E2,4.8E1,4.92E2,3.27E2,8.17E2,4.9E2,9.1E1,1.055E3,1.56E2,9.89E2,6.54E2,8.18E2,8.23E2,4.9E2,2.9E2,3.6E2],"tree_param":{"num_deleted":"0","num_feature":"7","num_nodes":"101","size_leaf_vector":"1"}},{"base_weights":[3.7738916E-2,-1.16591576E2,1.8788074E2,-1.5906503E2,-4.8904587E1,1.0679695E2,2.7577786E2,-1.8376703E2,-1.4171765E2,-7.37219E1,-7.9670987E0,7.18822E1,1.332714E2,2.1410364E2,2.8847748E2,-1.9912253E2,-1.7088338E2,-1.4924643E2,-1.1852394E2,-9.050681E1,-6.142769E1,-2.694854E1,1.2661081E1,4.6446434E1,8.375196E1,1.2171065E2,1.5891934E2,1.9947098E1,2.2847761E1,2.755256E2,2.9840543E2,-2.0331724E1,-1.9489313E1,-1.7529657E1,-1.6582472E1,-1.563246E2,-1.4243367E2,-1.2936229E1,-1.14114876E2,-9.705759E1,-8.390204E1,-6.9742226E1,-5.296653E1,-3.1638836E1,-1.2745535E1,2.3218539E0,2.5164139E1,3.9017696E1,5.1958508E1,7.371347E1,9.51265E1,1.1158973E2,1.317204E2,1.4831903E2,1.7186284E2,2.6162016E1,2.8116693E1,2.9555322E2,3.2567284E1,-1.588931E1,-1.5103999E1,-1.4546325E1,-1.39144125E1,-1.1790829E1,-1.1145802E1,-1.1110346E1,-9.52397E0,-9.129779E0,-8.132373E0,-7.2386065E0,-6.527613E0,-5.5974975E0,-4.7726493E0,-4.1947665E0,-2.9832582E0,-2.0424566E0,-9.9293244E-1,-6.007393E-1,6.6234404E-1,1.2090833E0,2.7715068E0,2.9459321E0,4.287714E0,4.724484E0,5.8480716E0,7.045437E0,7.8992968E0,8.4314375E0,9.663157E0,9.841773E0,1.1325358E1,1.1907187E1,1.3434733E1,1.3735333E1,1.5257036E1,1.6156937E1,1.7634727E1,2.9157307E1,3.0268187E1],"categories":[],"categories_nodes":[],"categories_segments":[],"categories_sizes":[],"default_left":[0,0,0,0,0,0,0,0,0,0,0,0,0,0,0,0,0,0,0,0,0,0,0,0,0,0,0,0,0,0,0,0,0,0,0,0,0,0,0,0,0,0,0,0,0,0,0,0,0,0,0,0,0,0,0,0,0,0,0,0,0,0,0,0,0,0,0,0,0,0,0,0,0,0,0,0,0,0,0,0,0,0,0,0,0,0,0,0,0,0,0,0,0,0,0,0,0,0,0],"id":14,"left_children":[1,3,5,7,9,11,13,15,17,19,21,23,25,27,29,31,33,35,37,39,41,43,45,47,49,51,53,-1,-1,55,57,-1,-1,-1,-1,59,61,-1,63,65,67,69,71,73,75,77,79,81,83,85,87,89,91,93,95,-1,-1,97,-1,-1,-1,-1,-1,-1,-1,-1,-1,-1,-1,-1,-1,-1,-1,-1,-1,-1,-1,-1,-1,-1,-1,-1,-1,-1,-1,-1,-1,-1,-1,-1,-1,-1,-1,-1,-1,-1,-1,-1,-1],"loss_changes":[9.1737555E8,7.426237E7,1.1428819E8,6.775808E6,1.0120392E7,7.704112E6,5.96608E6,1.260816E6,1.611328E6,1.274272E6,1.4729704E6,1.083312E6,1.387592E6,2.31644E5,7.38016E5,1.3232E4,5.0544E4,3.17168E5,9.4716E4,1.05214E5,2.48372E5,1.30098125E5,2.3301894E5,4.4981E4,2.73194E5,3.17084E5,1.76336E5,0E0,0E0,1.44608E5,1.8368E5,0E0,0E0,0E0,0E0,2.272E4,1.5608E4,0E0,3.358E3,2.2842E4,1.7593E4,1.6576E4,2.5389E4,2.615775E4,1.035057E4,3.5438812E4,2.6877719E4,1.6923688E4,1.7404875E4,1.69405E4,1.0517E4,2.4688E4,3.8528E4,1.7084E4,1.788E3,0E0,0E0,4.512E3,0E0,0E0,0E0,0E0,0E0,0E0,0E0,0E0,0E0,0E0,0E0,0E0,0E0,0E0,0E0,0E0,0E0,0E0,0E0,0E0,0E0,0E0,0E0,0E0,0E0,0E0,0E0,0E0,0E0,0E0,0E0,0E0,0E0,0E0,0E0,0E0,0E0,0E0,0E0,0E0,0E0],"parents":[2147483647,0,0,1,1,2,2,3,3,4,4,5,5,6,6,7,7,8,8,9,9,10,10,11,11,12,12,13,13,14,14,15,15,16,16,17,17,18,18,19,19,20,20,21,21,22,22,23,23,24,24,25,25,26,26,29,29,30,30,35,35,36,36,38,38,39,39,40,40,41,41,42,42,43,43,44,44,45,45,46,46,47,47,48,48,49,49,50,50,51,51,52,52,53,53,54,54,57,57],"right_children":[2,4,6,8,10,12,14,16,18,20,22,24,26,28,30,32,34,36,38,40,42,44,46,48,50,52,54,-1,-1,56,58,-1,-1,-1,-1,60,62,-1,64,66,68,70,72,74,76,78,80,82,84,86,88,90,92,94,96,-1,-1,98,-1,-1,-1,-1,-1,-1,-1,-1,-1,-1,-1,-1,-1,-1,-1,-1,-1,-1,-1,-1,-1,-1,-1,-1,-1,-1,-1,-1,-1,-1,-1,-1,-1,-1,-1,-1,-1,-1,-1,-1,-1],"split_conditions":[1.968843E-1,-6.4835244E-1,1.1133997E0,-9.870777E-1,-2.6694575E-1,6.1310387E-1,1.4721881E0,-1.0733054E0,-8.226442E-1,-4.6510524E-1,-4.2213432E-2,3.71505E-1,8.4645456E-1,1.2887704E0,1.7259065E0,-1.2049006E0,-9.060861E-1,-9.0046805E-1,-7.404935E-1,-5.5016154E-1,-3.7414774E-1,-1.3107671E-1,6.806975E-2,2.671813E-1,5.118975E-1,7.301973E-1,9.454128E-1,1.9947098E1,2.2847761E1,1.6469985E0,1.8629823E0,-2.0331724E1,-1.9489313E1,-1.7529657E1,-1.6582472E1,-9.3450856E-1,-9.797354E-1,-1.2936229E1,-6.979393E-1,-7.0055634E-1,-4.110255E-1,-4.149215E-1,-3.146082E-1,-9.036083E-2,1.05784826E-1,1.6758847E-1,-6.540566E-1,3.1227925E-1,4.5731208E-1,4.471559E-1,5.3422195E-1,6.0166085E-1,6.461755E-1,7.467579E-1,8.9148086E-1,2.6162016E1,2.8116693E1,1.7964174E0,3.2567284E1,-1.588931E1,-1.5103999E1,-1.4546325E1,-1.39144125E1,-1.1790829E1,-1.1145802E1,-1.1110346E1,-9.52397E0,-9.129779E0,-8.132373E0,-7.2386065E0,-6.527613E0,-5.5974975E0,-4.7726493E0,-4.1947665E0,-2.9832582E0,-2.0424566E0,-9.9293244E-1,-6.007393E-1,6.6234404E-1,1.2090833E0,2.7715068E0,2.9459321E0,4.287714E0,4.724484E0,5.8480716E0,7.045437E0,7.8992968E0,8.4314375E0,9.663157E0,9.841773E0,1.1325358E1,1.1907187E1,1.3434733E1,1.3735333E1,1.5257036E1,1.6156937E1,1.7634727E1,2.9157307E1,3.0268187E1],"split_indices":[5,5,5,5,5,5,5,4,5,5,5,5,5,5,5,5,4,5,5,5,5,5,5,5,5,5,5,0,0,5,6,0,0,0,0,5,4,0,5,1,0,5,5,0,1,1,0,1,0,5,0,1,0,0,0,0,0,5,0,0,0,0,0,0,0,0,0,0,0,0,0,0,0,0,0,0,0,0,0,0,0,0,0,0,0,0,0,0,0,0,0,0,0,0,0,0,0,0,0],"split_type":[0,0,0,0,0,0,0,0,0,0,0,0,0,0,0,0,0,0,0,0,0,0,0,0,0,0,0,0,0,0,0,0,0,0,0,0,0,0,0,0,0,0,0,0,0,0,0,0,0,0,0,0,0,0,0,0,0,0,0,0,0,0,0,0,0,0,0,0,0,0,0,0,0,0,0,0,0,0,0,0,0,0,0,0,0,0,0,0,0,0,0,0,0,0,0,0,0,0,0],"sum_hessian":[4.1872E4,2.5833E4,1.6039E4,1.5872E4,9.961E3,8.344E3,7.695E3,6.544E3,9.328E3,6.201E3,3.76E3,3.6E3,4.744E3,1.317E3,6.378E3,2.979E3,3.565E3,7.038E3,2.29E3,2.619E3,3.582E3,1.958E3,1.802E3,1.147E3,2.453E3,3.274E3,1.47E3,6.6E2,6.57E2,2.78E3,3.598E3,1.472E3,1.507E3,1.886E3,1.679E3,3.441E3,3.597E3,6.54E2,1.636E3,1.308E3,1.311E3,1.803E3,1.779E3,1.471E3,4.87E2,9.87E2,8.15E2,4.92E2,6.55E2,1.307E3,1.146E3,1.634E3,1.64E3,8.15E2,6.55E2,8.16E2,1.964E3,3.268E3,3.3E2,2.296E3,1.145E3,1.85E3,1.747E3,6.56E2,9.8E2,1.43E2,1.165E3,3.3E2,9.81E2,1.123E3,6.8E2,1.124E3,6.55E2,2.16E2,1.255E3,1.29E2,3.58E2,3.36E2,6.51E2,1.34E2,6.81E2,1.44E2,3.48E2,3.85E2,2.7E2,8.17E2,4.9E2,1.47E2,9.99E2,1.9E2,1.444E3,2.9E2,1.35E3,2.37E2,5.78E2,2.1E2,4.45E2,2.124E3,1.144E3],"tree_param":{"num_deleted":"0","num_feature":"7","num_nodes":"99","size_leaf_vector":"1"}},{"base_weights":[3.662906E-2,-1.0320964E2,1.7195166E2,-1.4164806E2,-3.8987286E1,1.0168007E2,2.5147728E2,-1.6276312E2,-1.2363106E2,-6.2575798E1,-1.1462941E0,7.454789E1,1.2987534E2,2.0950078E2,2.6197147E2,-1.793586E2,-1.5208109E2,-1.3187025E2,-1.0217757E2,-7.347503E1,-4.8118717E1,-1.7399866E1,2.0018845E1,5.6921993E1,8.963975E1,1.1879103E2,1.5841942E2,1.9149435E1,2.2389633E2,2.5600916E2,2.7538358E2,-1.8228148E1,-1.7460703E1,-1.59878645E1,-1.4892712E2,-1.3789746E2,-1.2666596E2,-1.06538895E2,-9.552263E1,-8.0593575E1,-6.565363E1,-5.393704E1,-4.2325928E1,-2.518686E1,-4.913728E0,1.0767691E1,2.9200459E1,4.5262302E1,6.521521E1,8.20425E1,9.526055E1,1.0939008E2,1.26254196E2,1.4903116E2,1.7054436E1,2.1249472E1,2.3112429E1,2.4801704E1,2.5968204E1,2.7119385E1,2.9342722E1,-1.5148816E1,-1.4472389E1,-1.4099902E1,-1.3471507E1,-1.2922348E1,-1.2241153E1,-1.196667E1,-1.0513786E1,-1.0095807E1,-9.115887E0,-8.323576E0,-7.581856E0,-6.8162813E0,-6.3030314E0,-6.5186763E0,-5.231213E0,-4.292931E0,-1.3252577E0,-2.8090248E0,-2.0264876E0,-5.9768766E-1,9.9630445E-1,4.5720854E-1,1.485934E0,2.427224E0,3.2453237E0,4.3051243E0,5.3714004E0,5.217094E0,6.6746836E0,3.9433465E0,8.2797985E0,9.141269E0,1.0093055E1,1.1238163E1,1.0439688E1,1.2235769E1,1.3188605E1,1.42634115E1,1.5485855E1],"categories":[],"categories_nodes":[],"categories_segments":[],"categories_sizes":[],"default_left":[0,0,0,0,0,0,0,0,0,0,0,0,0,0,0,0,0,0,0,0,0,0,0,0,0,0,0,0,0,0,0,0,0,0,0,0,0,0,0,0,0,0,0,0,0,0,0,0,0,0,0,0,0,0,0,0,0,0,0,0,0,0,0,0,0,0,0,0,0,0,0,0,0,0,0,0,0,0,0,0,0,0,0,0,0,0,0,0,0,0,0,0,0,0,0,0,0,0,0,0,0],"id":15,"left_children":[1,3,5,7,9,11,13,15,17,19,21,23,25,27,29,31,33,35,37,39,41,43,45,47,49,51,53,-1,55,57,59,-1,-1,-1,61,63,65,67,69,71,73,75,77,79,81,83,85,87,89,91,93,95,97,99,-1,-1,-1,-1,-1,-1,-1,-1,-1,-1,-1,-1,-1,-1,-1,-1,-1,-1,-1,-1,-1,-1,-1,-1,-1,-1,-1,-1,-1,-1,-1,-1,-1,-1,-1,-1,-1,-1,-1,-1,-1,-1,-1,-1,-1,-1,-1],"loss_changes":[7.4324614E8,6.4578144E7,8.77792E7,6.205984E6,8.744854E6,6.372704E6,3.191712E6,1.307952E6,1.548192E6,9.47406E5,1.2948548E6,1.12649E6,1.275224E6,3.40496E5,4.00672E5,9.064E3,8.9048E4,1.82656E5,6.1106E4,1.86182E5,8.5247E4,2.0687775E5,1.3856338E5,1.87056E5,8.9974E4,1.93164E5,1.04464E5,0E0,1.8136E4,5.5728E4,5.6496E4,0E0,0E0,0E0,1.3408E4,1.0072E4,2.1572E4,1.4548E4,1.4089E4,1.6348E4,6.525E3,2.02075E4,2.234175E4,1.8165562E4,1.3013033E4,2.061786E4,1.23571875E4,1.3011125E4,1.9414E4,2.8314E4,1.9355E4,7.881E3,1.9808E4,2.181E3,0E0,0E0,0E0,0E0,0E0,0E0,0E0,0E0,0E0,0E0,0E0,0E0,0E0,0E0,0E0,0E0,0E0,0E0,0E0,0E0,0E0,0E0,0E0,0E0,0E0,0E0,0E0,0E0,0E0,0E0,0E0,0E0,0E0,0E0,0E0,0E0,0E0,0E0,0E0,0E0,0E0,0E0,0E0,0E0,0E0,0E0,0E0],"parents":[2147483647,0,0,1,1,2,2,3,3,4,4,5,5,6,6,7,7,8,8,9,9,10,10,11,11,12,12,13,13,14,14,15,15,16,16,17,17,18,18,19,19,20,20,21,21,22,22,23,23,24,24,25,25,26,26,28,28,29,29,30,30,34,34,35,35,36,36,37,37,38,38,39,39,40,40,41,41,42,42,43,43,44,44,45,45,46,46,47,47,48,48,49,49,50,50,51,51,52,52,53,53],"right_children":[2,4,6,8,10,12,14,16,18,20,22,24,26,28,30,32,34,36,38,40,42,44,46,48,50,52,54,-1,56,58,60,-1,-1,-1,62,64,66,68,70,72,74,76,78,80,82,84,86,88,90,92,94,96,98,100,-1,-1,-1,-1,-1,-1,-1,-1,-1,-1,-1,-1,-1,-1,-1,-1,-1,-1,-1,-1,-1,-1,-1,-1,-1,-1,-1,-1,-1,-1,-1,-1,-1,-1,-1,-1,-1,-1,-1,-1,-1,-1,-1,-1,-1,-1,-1],"split_conditions":[2.5036958E-1,-5.9167814E-1,1.2028916E0,-9.656321E-1,-2.1659519E-1,6.792794E-1,1.6057835E0,-1.1457319E0,-7.9203755E-1,-4.0583834E-1,1.6269332E-2,4.830784E-1,9.2778176E-1,1.3778347E0,1.7847795E0,-1.1921641E0,-1.0479981E0,-8.8717145E-1,-6.7775285E-1,-4.8837116E-1,-3.246441E-1,-9.1995575E-2,1.4456338E-1,3.71505E-1,5.8915704E-1,7.8815824E-1,1.0738505E0,1.9149435E1,1.4721881E0,1.6975523E0,1.8647144E0,-1.8228148E1,-1.7460703E1,-1.59878645E1,-8.7242514E-1,-9.307943E-1,-8.483804E-1,-8.4524715E-1,-7.0047134E-1,-5.3311247E-1,-4.4112104E-1,-4.110255E-1,-9.08719E-2,-1.7234945E-1,1.4638868E-1,4.7140453E-2,1.8281554E-1,3.3145082E-1,4.3012485E-1,3.3509645E-1,6.7563695E-1,6.9019806E-1,8.4645456E-1,9.830823E-1,1.7054436E1,2.1249472E1,2.3112429E1,2.4801704E1,2.5968204E1,2.7119385E1,2.9342722E1,-1.5148816E1,-1.4472389E1,-1.4099902E1,-1.3471507E1,-1.2922348E1,-1.2241153E1,-1.196667E1,-1.0513786E1,-1.0095807E1,-9.115887E0,-8.323576E0,-7.581856E0,-6.8162813E0,-6.3030314E0,-6.5186763E0,-5.231213E0,-4.292931E0,-1.3252577E0,-2.8090248E0,-2.0264876E0,-5.9768766E-1,9.9630445E-1,4.5720854E-1,1.485934E0,2.427224E0,3.2453237E0,4.3051243E0,5.3714004E0,5.217094E0,6.6746836E0,3.9433465E0,8.2797985E0,9.141269E0,1.0093055E1,1.1238163E1,1.0439688E1,1.2235769E1,1.3188605E1,1.42634115E1,1.5485855E1],"split_indices":[5,5,5,5,5,5,5,4,5,5,5,5,5,5,5,5,5,5,5,5,5,5,5,5,5,5,5,0,5,5,5,0,0,0,4,5,5,1,0,5,5,0,4,5,4,5,5,5,0,4,0,4,5,5,0,0,0,0,0,0,0,0,0,0,0,0,0,0,0,0,0,0,0,0,0,0,0,0,0,0,0,0,0,0,0,0,0,0,0,0,0,0,0,0,0,0,0,0,0,0,0],"split_type":[0,0,0,0,0,0,0,0,0,0,0,0,0,0,0,0,0,0,0,0,0,0,0,0,0,0,0,0,0,0,0,0,0,0,0,0,0,0,0,0,0,0,0,0,0,0,0,0,0,0,0,0,0,0,0,0,0,0,0,0,0,0,0,0,0,0,0,0,0,0,0,0,0,0,0,0,0,0,0,0,0,0,0,0,0,0,0,0,0,0,0,0,0,0,0,0,0,0,0,0,0],"sum_hessian":[4.1872E4,2.6161E4,1.5711E4,1.6365E4,9.796E3,8.342E3,7.369E3,7.531E3,8.834E3,6.034E3,3.762E3,4.253E3,4.089E3,1.478E3,5.891E3,2.943E3,4.588E3,6.379E3,2.455E3,3.438E3,2.596E3,2.128E3,1.634E3,1.964E3,2.289E3,2.949E3,1.14E3,6.63E2,8.15E2,4.092E3,1.799E3,1.799E3,1.144E3,1.307E3,3.281E3,2.944E3,3.435E3,1.474E3,9.81E2,1.795E3,1.643E3,1.291E3,1.305E3,1.31E3,8.18E2,8.15E2,8.19E2,8.19E2,1.145E3,9.8E2,1.309E3,1.312E3,1.637E3,6.5E2,4.9E2,3.28E2,4.87E2,1.31E3,2.782E3,1.473E3,3.26E2,2.017E3,1.264E3,1.469E3,1.475E3,2.127E3,1.308E3,1.34E2,1.34E3,4.27E2,5.54E2,1.145E3,6.5E2,8.27E2,8.16E2,1.58E2,1.133E3,1.278E3,2.7E1,8.21E2,4.89E2,7.64E2,5.4E1,3.25E2,4.9E2,3.29E2,4.9E2,6.54E2,1.65E2,1.24E2,1.021E3,1.8E1,9.62E2,7.9E2,5.19E2,8.07E2,5.05E2,9.81E2,6.56E2,3.22E2,3.28E2],"tree_param":{"num_deleted":"0","num_feature":"7","num_nodes":"101","size_leaf_vector":"1"}},{"base_weights":[3.5312228E-2,-9.445688E1,1.5222429E2,-1.2749398E2,-3.7346336E1,8.652708E1,2.2344194E2,-1.468998E2,-1.11610756E2,-5.6325893E1,-3.9900048E0,6.037812E1,1.0976745E2,1.735865E2,2.3370781E2,-1.6079103E2,-1.3670972E2,-1.1895683E2,-9.197678E1,-6.6135956E1,-4.331352E1,-1.827946E1,1.1771066E1,4.1320164E1,7.1803825E1,9.94598E1,1.2722841E2,1.6146692E2,1.8549751E1,2.245606E2,2.4322647E2,-1.6343824E1,-1.5488812E1,-1.4053062E2,-1.3229622E1,-1.24124794E2,-1.13749374E2,-9.801652E1,-8.7886536E1,-7.254303E1,-5.9096275E1,-4.7441048E1,-3.6477066E1,-2.372612E1,-8.751071E0,3.1198397E0,2.0439672E1,3.5818584E1,5.220603E1,6.2632168E1,7.978555E1,9.197968E1,1.0601607E2,1.1910837E2,1.3917738E2,1.4804175E1,1.6505148E1,2.117256E1,2.2874903E1,2.4062094E1,2.6440647E1,-1.453821E1,-1.3846961E1,-1.27121725E1,-1.2105026E1,-1.16793785E1,-1.1088278E1,-1.086834E1,-9.6463995E0,-9.012015E0,-8.131163E0,-7.5716867E0,-6.9205117E0,-6.9384356E0,-5.842759E0,-5.8325725E0,-4.6137905E0,-4.1760178E0,-3.245453E0,-2.4378192E0,-1.0598657E0,-1.8986988E0,-6.965626E-1,-6.300264E-1,6.23442E-1,8.8892096E-1,2.2696085E0,2.7120435E0,3.8103893E0,3.784958E0,5.527503E0,6.104292E0,7.958848E0,7.822458E0,8.992154E0,5.965918E0,9.246108E0,8.931334E0,1.0763095E1,1.1099682E1,1.2325687E1,1.303245E1,1.4305358E1],"categories":[],"categories_nodes":[],"categories_segments":[],"categories_sizes":[],"default_left":[0,0,0,0,0,0,0,0,0,0,0,0,0,0,0,0,0,0,0,0,0,0,0,0,0,0,0,0,0,0,0,0,0,0,0,0,0,0,0,0,0,0,0,0,0,0,0,0,0,0,0,0,0,0,0,0,0,0,0,0,0,0,0,0,0,0,0,0,0,0,0,0,0,0,0,0,0,0,0,0,0,0,0,0,0,0,0,0,0,0,0,0,0,0,0,0,0,0,0,0,0,0,0],"id":16,"left_children":[1,3,5,7,9,11,13,15,17,19,21,23,25,27,29,31,33,35,37,39,41,43,45,47,49,51,53,55,-1,57,59,-1,-1,61,-1,63,65,67,69,71,73,75,77,79,81,83,85,87,89,91,93,95,97,99,101,-1,-1,-1,-1,-1,-1,-1,-1,-1,-1,-1,-1,-1,-1,-1,-1,-1,-1,-1,-1,-1,-1,-1,-1,-1,-1,-1,-1,-1,-1,-1,-1,-1,-1,-1,-1,-1,-1,-1,-1,-1,-1,-1,-1,-1,-1,-1,-1],"loss_changes":[6.021761E8,4.873797E7,7.502864E7,5.028064E6,5.994491E6,5.064728E6,3.898336E6,1.020272E6,1.287736E6,7.67516E5,7.7383594E5,8.52574E5,7.82328E5,1.60304E5,5.00768E5,2.328E4,5.3144E4,1.62128E5,5.2056E4,1.50825E5,7.1551E4,9.331244E4,1.2247655E5,8.6467E4,1.74723E5,1.26682E5,1.42158E5,7.376E3,0E0,1.27136E5,1.08224E5,0E0,0E0,2.508E3,0E0,1.48E4,1.562E4,5.795E3,1.4318E4,1.3787E4,7.256E3,2.023075E4,1.9513625E4,9.5514375E3,1.1874855E4,2.4068463E4,2.1065312E4,1.850675E4,1.9629375E4,2.6051E4,1.3677E4,1.4819E4,3.0199E4,1.9329E4,3.868E3,0E0,0E0,0E0,0E0,0E0,0E0,0E0,0E0,0E0,0E0,0E0,0E0,0E0,0E0,0E0,0E0,0E0,0E0,0E0,0E0,0E0,0E0,0E0,0E0,0E0,0E0,0E0,0E0,0E0,0E0,0E0,0E0,0E0,0E0,0E0,0E0,0E0,0E0,0E0,0E0,0E0,0E0,0E0,0E0,0E0,0E0,0E0,0E0],"parents":[2147483647,0,0,1,1,2,2,3,3,4,4,5,5,6,6,7,7,8,8,9,9,10,10,11,11,12,12,13,13,14,14,15,15,16,16,17,17,18,18,19,19,20,20,21,21,22,22,23,23,24,24,25,25,26,26,27,27,29,29,30,30,33,33,35,35,36,36,37,37,38,38,39,39,40,40,41,41,42,42,43,43,44,44,45,45,46,46,47,47,48,48,49,49,50,50,51,51,52,52,53,53,54,54],"right_children":[2,4,6,8,10,12,14,16,18,20,22,24,26,28,30,32,34,36,38,40,42,44,46,48,50,52,54,56,-1,58,60,-1,-1,62,-1,64,66,68,70,72,74,76,78,80,82,84,86,88,90,92,94,96,98,100,102,-1,-1,-1,-1,-1,-1,-1,-1,-1,-1,-1,-1,-1,-1,-1,-1,-1,-1,-1,-1,-1,-1,-1,-1,-1,-1,-1,-1,-1,-1,-1,-1,-1,-1,-1,-1,-1,-1,-1,-1,-1,-1,-1,-1,-1,-1,-1,-1],"split_conditions":[1.968843E-1,-5.9167814E-1,1.1133997E0,-9.6984464E-1,-2.1659519E-1,6.3593787E-1,1.4721881E0,-1.0798317E0,-7.9203755E-1,-4.0583834E-1,-2.8812971E-2,4.191923E-1,8.329374E-1,1.2887704E0,1.7407825E0,-1.1823021E0,-8.919175E-1,-8.842487E-1,-6.979393E-1,-4.8837116E-1,-3.146082E-1,-1.3107671E-1,6.806975E-2,3.3145082E-1,5.3346574E-1,7.301973E-1,9.454128E-1,7.757069E-1,1.8549751E1,1.6469985E0,1.8629823E0,-1.6343824E1,-1.5488812E1,-1.0605618E0,-1.3229622E1,-9.307943E-1,-9.729816E-1,-8.4524715E-1,-4.7728792E-1,-4.111747E-1,-4.7728792E-1,-4.110255E-1,-1.2157963E-1,4.2844692E-1,-6.540566E-1,1.6786622E-1,-6.540566E-1,3.1227925E-1,-6.540566E-1,6.603413E-1,7.020709E-1,4.5780608E-1,6.5550345E-1,7.467579E-1,8.9148086E-1,1.4804175E1,1.6505148E1,2.117256E1,2.2874903E1,2.4062094E1,2.6440647E1,-1.453821E1,-1.3846961E1,-1.27121725E1,-1.2105026E1,-1.16793785E1,-1.1088278E1,-1.086834E1,-9.6463995E0,-9.012015E0,-8.131163E0,-7.5716867E0,-6.9205117E0,-6.9384356E0,-5.842759E0,-5.8325725E0,-4.6137905E0,-4.1760178E0,-3.245453E0,-2.4378192E0,-1.0598657E0,-1.8986988E0,-6.965626E-1,-6.300264E-1,6.23442E-1,8.8892096E-1,2.2696085E0,2.7120435E0,3.8103893E0,3.784958E0,5.527503E0,6.104292E0,7.958848E0,7.822458E0,8.992154E0,5.965918E0,9.246108E0,8.931334E0,1.0763095E1,1.1099682E1,1.2325687E1,1.303245E1,1.4305358E1],"split_indices":[5,5,5,5,5,5,5,5,5,5,5,5,5,5,5,6,4,5,5,5,5,5,5,5,5,5,5,2,0,5,6,0,0,5,0,5,4,1,0,1,0,0,0,2,0,0,0,1,0,4,6,4,6,0,0,0,0,0,0,0,0,0,0,0,0,0,0,0,0,0,0,0,0,0,0,0,0,0,0,0,0,0,0,0,0,0,0,0,0,0,0,0,0,0,0,0,0,0,0,0,0,0,0],"split_type":[0,0,0,0,0,0,0,0,0,0,0,0,0,0,0,0,0,0,0,0,0,0,0,0,0,0,0,0,0,0,0,0,0,0,0,0,0,0,0,0,0,0,0,0,0,0,0,0,0,0,0,0,0,0,0,0,0,0,0,0,0,0,0,0,0,0,0,0,0,0,0,0,0,0,0,0,0,0,0,0,0,0,0,0,0,0,0,0,0,0,0,0,0,0,0,0,0,0,0,0,0,0,0],"sum_hessian":[4.1872E4,2.5833E4,1.6039E4,1.6365E4,9.468E3,8.344E3,7.695E3,7.362E3,9.003E3,6.034E3,3.434E3,3.928E3,4.416E3,1.317E3,6.378E3,3.109E3,4.253E3,6.548E3,2.455E3,3.438E3,2.596E3,1.801E3,1.633E3,1.474E3,2.454E3,2.781E3,1.635E3,6.6E2,6.57E2,3.265E3,3.113E3,2.128E3,9.81E2,2.263E3,1.99E3,3.275E3,3.273E3,9.82E2,1.473E3,1.795E3,1.643E3,1.615E3,9.81E2,1.145E3,6.56E2,8.18E2,8.15E2,9.82E2,4.92E2,1.146E3,1.308E3,1.306E3,1.475E3,9.8E2,6.55E2,1.48E2,5.12E2,8.16E2,2.449E3,2.783E3,3.3E2,6.54E2,1.609E3,1.638E3,1.637E3,1.568E3,1.705E3,1.16E2,8.66E2,1.09E3,3.83E2,9.09E2,8.86E2,9.4E1,1.549E3,1.68E2,1.447E3,4.2E2,5.61E2,1.09E3,5.5E1,9.6E1,5.6E2,2.03E2,6.15E2,1.34E2,6.81E2,2.07E2,7.75E2,8.9E1,4.03E2,1.052E3,9.4E1,1.141E3,1.67E2,2.1E1,1.285E3,1.35E2,1.34E3,3.41E2,6.39E2,2.1E2,4.45E2],"tree_param":{"num_deleted":"0","num_feature":"7","num_nodes":"103","size_leaf_vector":"1"}},{"base_weights":[3.3438653E-2,-8.362022E1,1.3932486E2,-1.147543E2,-3.1601828E1,8.119967E1,2.0242386E2,-1.3186174E2,-1.00156906E2,-4.9380795E1,1.3263979E0,5.9535355E1,1.0286002E2,1.6156425E2,2.1104694E2,-1.441914E2,-1.22368034E2,-1.0652462E2,-8.1910965E1,-5.8587536E1,-3.607145E1,-1.0998054E1,1.7816786E1,4.4975975E1,7.0961136E1,9.4761086E1,1.23778465E2,1.4983846E2,1.7318661E2,2.0523546E2,2.220936E2,-1.4710204E1,-1.386438E1,-1.2517425E1,-1.1802746E1,-1.1147286E2,-1.0202441E2,-8.4395706E1,-7.5579765E1,-6.529681E1,-5.2422344E1,-3.9810272E1,-2.783025E1,-1.8973618E1,-3.0113132E0,1.04155855E1,2.3670889E1,3.678501E1,5.176297E1,6.30853E1,7.5275444E1,8.794363E1,1.01500595E2,1.16216255E2,1.3364865E2,1.4300598E1,1.5629969E1,1.6309074E1,1.7774918E1,1.9448742E1,2.0856298E1,2.190382E1,2.3827991E1,-1.145196E1,-1.09191065E1,-1.0391503E1,-9.718624E0,-9.236145E0,-8.335986E0,-8.21544E0,-7.283691E0,-6.7561746E0,-6.120937E0,-5.5031533E0,-4.974096E0,-4.3872957E0,-3.749249E0,-4.0603313E0,-2.556966E0,-2.1416855E0,-1.2628584E0,-4.7337326E-1,5.44348E-1,6.534595E-1,1.5972761E0,2.275011E0,3.7694752E0,3.388738E0,4.149183E0,3.7610378E0,5.326996E0,5.1245923E0,6.6303077E0,7.287079E0,8.130281E0,9.106799E0,8.371352E0,9.263613E0,1.0327312E1,1.0960832E1,1.1935023E1,1.2205379E1,1.3670802E1],"categories":[],"categories_nodes":[],"categories_segments":[],"categories_sizes":[],"default_left":[0,0,0,0,0,0,0,0,0,0,0,0,0,0,0,0,0,0,0,0,0,0,0,0,0,0,0,0,0,0,0,0,0,0,0,0,0,0,0,0,0,0,0,0,0,0,0,0,0,0,0,0,0,0,0,0,0,0,0,0,0,0,0,0,0,0,0,0,0,0,0,0,0,0,0,0,0,0,0,0,0,0,0,0,0,0,0,0,0,0,0,0,0,0,0,0,0,0,0,0,0,0,0],"id":17,"left_children":[1,3,5,7,9,11,13,15,17,19,21,23,25,27,29,31,33,35,37,39,41,43,45,47,49,51,53,55,57,59,61,-1,-1,-1,-1,63,65,67,69,71,73,75,77,79,81,83,85,87,89,91,93,95,97,99,101,-1,-1,-1,-1,-1,-1,-1,-1,-1,-1,-1,-1,-1,-1,-1,-1,-1,-1,-1,-1,-1,-1,-1,-1,-1,-1,-1,-1,-1,-1,-1,-1,-1,-1,-1,-1,-1,-1,-1,-1,-1,-1,-1,-1,-1,-1,-1,-1],"loss_changes":[4.8792573E8,4.2366896E7,5.760957E7,4.073776E6,5.735522E6,3.832396E6,2.62E6,8.64008E5,1.017776E6,7.77458E5,6.985113E5,6.77523E5,6.81016E5,1.53536E5,3.53536E5,3.2424E4,3.714E4,1.34392E5,2.9647E4,1.52064E5,7.91275E4,1.2523833E5,6.344475E4,9.82725E4,7.3096E4,1.26708E5,6.9408E4,6.918E3,1.182E3,1.05632E5,5.3208E4,0E0,0E0,0E0,0E0,9.092E3,2.1368E4,5.799E3,5.82825E3,1.2492E4,1.1003E4,1.520125E4,2.25235E4,1.4983906E4,1.4355464E4,1.3935969E4,9.7309375E3,9.777625E3,1.896175E4,2.772725E4,1.5454E4,1.1871E4,1.3657E4,4.2E2,5.9E2,0E0,0E0,0E0,0E0,0E0,0E0,0E0,0E0,0E0,0E0,0E0,0E0,0E0,0E0,0E0,0E0,0E0,0E0,0E0,0E0,0E0,0E0,0E0,0E0,0E0,0E0,0E0,0E0,0E0,0E0,0E0,0E0,0E0,0E0,0E0,0E0,0E0,0E0,0E0,0E0,0E0,0E0,0E0,0E0,0E0,0E0,0E0,0E0],"parents":[2147483647,0,0,1,1,2,2,3,3,4,4,5,5,6,6,7,7,8,8,9,9,10,10,11,11,12,12,13,13,14,14,15,15,16,16,17,17,18,18,19,19,20,20,21,21,22,22,23,23,24,24,25,25,26,26,27,27,28,28,29,29,30,30,35,35,36,36,37,37,38,38,39,39,40,40,41,41,42,42,43,43,44,44,45,45,46,46,47,47,48,48,49,49,50,50,51,51,52,52,53,53,54,54],"right_children":[2,4,6,8,10,12,14,16,18,20,22,24,26,28,30,32,34,36,38,40,42,44,46,48,50,52,54,56,58,60,62,-1,-1,-1,-1,64,66,68,70,72,74,76,78,80,82,84,86,88,90,92,94,96,98,100,102,-1,-1,-1,-1,-1,-1,-1,-1,-1,-1,-1,-1,-1,-1,-1,-1,-1,-1,-1,-1,-1,-1,-1,-1,-1,-1,-1,-1,-1,-1,-1,-1,-1,-1,-1,-1,-1,-1,-1,-1,-1,-1,-1,-1,-1,-1,-1,-1],"split_conditions":[2.5036958E-1,-5.9167814E-1,1.1570019E0,-9.656321E-1,-1.9290139E-1,6.701908E-1,1.521703E0,-1.0733367E0,-7.646851E-1,-3.8712403E-1,3.1906996E-2,4.5952818E-1,9.138745E-1,1.3333858E0,1.7724255E0,-1.1823021E0,-8.822236E-1,-8.842487E-1,-6.589539E-1,-4.8837116E-1,-2.8683305E-1,-9.1995575E-2,1.4456338E-1,3.71505E-1,5.6646466E-1,7.8815824E-1,1.0308784E0,1.2467468E0,1.1809267E0,1.6693742E0,1.8647144E0,-1.4710204E1,-1.386438E1,-1.2517425E1,-1.1802746E1,-9.3450856E-1,-8.3796346E-1,-8.151126E-1,-7.0047134E-1,-5.3311247E-1,-4.3598673E-1,-3.374066E-1,-1.2157963E-1,1.6786622E-1,1.4638868E-1,3.1258914E-1,3.72503E-1,4.5731208E-1,4.3012485E-1,4.5697007E-1,6.7563695E-1,7.0249975E-1,6.7563695E-1,8.1963015E-1,7.7735686E-1,1.4300598E1,1.5629969E1,1.6309074E1,1.7774918E1,1.9448742E1,2.0856298E1,2.190382E1,2.3827991E1,-1.145196E1,-1.09191065E1,-1.0391503E1,-9.718624E0,-9.236145E0,-8.335986E0,-8.21544E0,-7.283691E0,-6.7561746E0,-6.120937E0,-5.5031533E0,-4.974096E0,-4.3872957E0,-3.749249E0,-4.0603313E0,-2.556966E0,-2.1416855E0,-1.2628584E0,-4.7337326E-1,5.44348E-1,6.534595E-1,1.5972761E0,2.275011E0,3.7694752E0,3.388738E0,4.149183E0,3.7610378E0,5.326996E0,5.1245923E0,6.6303077E0,7.287079E0,8.130281E0,